/*
 * Copyright (c) 2025 EdgeImpulse Inc.
 *
 * Generated by Edge Impulse and licensed under the applicable Edge Impulse
 * Terms of Service. Community and Professional Terms of Service
 * (https://edgeimpulse.com/legal/terms-of-service) or Enterprise Terms of
 * Service (https://edgeimpulse.com/legal/enterprise-terms-of-service),
 * according to your product plan subscription (the “License”).
 *
 * This software, documentation and other associated files (collectively referred
 * to as the “Software”) is a single SDK variation generated by the Edge Impulse
 * platform and requires an active paid Edge Impulse subscription to use this
 * Software for any purpose.
 *
 * You may NOT use this Software unless you have an active Edge Impulse subscription
 * that meets the eligibility requirements for the applicable License, subject to
 * your full and continued compliance with the terms and conditions of the License,
 * including without limitation any usage restrictions under the applicable License.
 *
 * If you do not have an active Edge Impulse product plan subscription, or if use
 * of this Software exceeds the usage limitations of your Edge Impulse product plan
 * subscription, you are not permitted to use this Software and must immediately
 * delete and erase all copies of this Software within your control or possession.
 * Edge Impulse reserves all rights and remedies available to enforce its rights.
 *
 * Unless required by applicable law or agreed to in writing, the Software is
 * distributed on an "AS IS" BASIS, WITHOUT WARRANTIES OR CONDITIONS OF ANY KIND,
 * either express or implied. See the License for the specific language governing
 * permissions, disclaimers and limitations under the License.
 */
// Generated on: 15.12.2025 20:47:13

#include <stdio.h>
#include <stdlib.h>
#include "edge-impulse-sdk/tensorflow/lite/c/builtin_op_data.h"
#include "edge-impulse-sdk/tensorflow/lite/c/common.h"
#include "edge-impulse-sdk/tensorflow/lite/micro/micro_mutable_op_resolver.h"
#include "edge-impulse-sdk/porting/ei_classifier_porting.h"

#if EI_CLASSIFIER_PRINT_STATE
#if defined(__cplusplus) && EI_C_LINKAGE == 1
extern "C" {
    extern void ei_printf(const char *format, ...);
}
#else
extern void ei_printf(const char *format, ...);
#endif
#endif

#define STRINGIZE(x) #x
#define STRINGIZE_VALUE_OF(x) STRINGIZE(x)

#if defined (__GNUC__)  /* GNU compiler */
#define ALIGN(X) __attribute__((aligned(X)))
#define DEFINE_SECTION(x) __attribute__((section(x)))
#elif defined (_MSC_VER)
#define ALIGN(X) __declspec(align(X))
#elif defined (__TASKING__) /* TASKING Compiler */
#define ALIGN(X) __align(X)
#define DEFINE_SECTION(x) __attribute__((section(x)))
#elif defined (__ARMCC_VERSION) /* Arm Compiler */
#define ALIGN(X) __ALIGNED(x)
#define DEFINE_SECTION(x) __attribute__((section(x)))
#elif defined (__ICCARM__) /* IAR Compiler */
#define ALIGN(x) __attribute__((aligned(x)))
#define DEFINE_SECTION(x) __attribute__((section(x)))
#elif defined (__clang__) /* LLVM/Clang Compiler */
#define ALIGN(X) __ALIGNED(x)
#define DEFINE_SECTION(x) __attribute__((section(x)))
#endif

#if defined(EI_MODEL_SECTION) && (defined(__GNUC__) || defined(__clang__))
#define MODEL_SECTION(X) __attribute__((section(STRINGIZE_VALUE_OF(X))))
#else
#define MODEL_SECTION(X)
#endif

#ifndef EI_MAX_SCRATCH_BUFFER_COUNT
#ifndef CONFIG_IDF_TARGET_ESP32S3
#define EI_MAX_SCRATCH_BUFFER_COUNT 4
#else
#define EI_MAX_SCRATCH_BUFFER_COUNT 8
#endif // CONFIG_IDF_TARGET_ESP32S3
#endif // EI_MAX_SCRATCH_BUFFER_COUNT

#ifndef EI_MAX_OVERFLOW_BUFFER_COUNT
#define EI_MAX_OVERFLOW_BUFFER_COUNT 10
#endif // EI_MAX_OVERFLOW_BUFFER_COUNT

using namespace tflite;
using namespace tflite::ops;
using namespace tflite::ops::micro;

namespace {

#if defined(EI_CLASSIFIER_ALLOCATION_STATIC_HIMAX) || defined(EI_CLASSIFIER_ALLOCATION_STATIC_HIMAX_GNU)
constexpr int kTensorArenaSize = 186832;
#else
constexpr int kTensorArenaSize = 185808;
#endif

#if defined(EI_CLASSIFIER_ALLOCATION_STATIC)
#if defined (EI_TENSOR_ARENA_LOCATION)
uint8_t tensor_arena[kTensorArenaSize] ALIGN(16) DEFINE_SECTION(STRINGIZE_VALUE_OF(EI_TENSOR_ARENA_LOCATION));
#else
uint8_t tensor_arena[kTensorArenaSize] ALIGN(16);
#endif
#elif defined(EI_CLASSIFIER_ALLOCATION_STATIC_HIMAX)
#pragma Bss(".tensor_arena")
uint8_t tensor_arena[kTensorArenaSize] ALIGN(16);
#pragma Bss()
#elif defined(EI_CLASSIFIER_ALLOCATION_STATIC_HIMAX_GNU)
uint8_t tensor_arena[kTensorArenaSize] ALIGN(16) __attribute__((section(".tensor_arena")));
#else
#define EI_CLASSIFIER_ALLOCATION_HEAP 1
uint8_t* tensor_arena = NULL;
#endif

static uint8_t* tensor_boundary;
static uint8_t* current_location;

template <int SZ, class T> struct TfArray {
  int sz; T elem[SZ];
};

enum used_operators_e {
  OP_CONV_2D, OP_MAX_POOL_2D, OP_RESHAPE, OP_FULLY_CONNECTED, OP_SOFTMAX,  OP_LAST
};

struct TensorInfo_t { // subset of TfLiteTensor used for initialization from constant memory
  TfLiteAllocationType allocation_type;
  TfLiteType type;
  void* data;
  TfLiteIntArray* dims;
  size_t bytes;
  TfLiteQuantization quantization;
};

typedef struct {
  TfLiteTensor tensor;
  int16_t index;
} TfLiteTensorWithIndex;

typedef struct {
  TfLiteEvalTensor tensor;
  int16_t index;
} TfLiteEvalTensorWithIndex;

TfLiteContext ctx{};
static const int MAX_TFL_TENSOR_COUNT = 4;
static TfLiteTensorWithIndex tflTensors[MAX_TFL_TENSOR_COUNT];
static const int MAX_TFL_EVAL_COUNT = 4;
static TfLiteEvalTensorWithIndex tflEvalTensors[MAX_TFL_EVAL_COUNT];
TfLiteRegistration registrations[OP_LAST];

namespace g0 {
const TfArray<4, int> tensor_dimension0 = { 4, { 1,96,96,3 } };
const TfArray<1, float> quant0_scale = { 1, { 0.0039215688593685627, } };
const TfArray<1, int> quant0_zero = { 1, { -128 } };
const TfLiteAffineQuantization quant0 = { (TfLiteFloatArray*)&quant0_scale, (TfLiteIntArray*)&quant0_zero, 0 };
const MODEL_SECTION(EI_MODEL_SECTION) ALIGN(8) int32_t tensor_data1[2] = { -1, 18432, };
const TfArray<1, int> tensor_dimension1 = { 1, { 2 } };
const MODEL_SECTION(EI_MODEL_SECTION) ALIGN(8) int32_t tensor_data2[2] = { 3443, -3443, };
const TfArray<1, float> quant2_scale = { 1, { 6.9613656705769245e-07, } };
const TfArray<1, int> quant2_zero = { 1, { 0 } };
const TfLiteAffineQuantization quant2 = { (TfLiteFloatArray*)&quant2_scale, (TfLiteIntArray*)&quant2_zero, 0 };
const MODEL_SECTION(EI_MODEL_SECTION) ALIGN(16) int8_t tensor_data3[2*18432] = { 
  41, -56, 27, 42, 86, -39, -26, -48, 14, 5, -50, -45, -52, 50, -14, 26, 48, 29, 30, -38, 26, 24, 25, 22, -23, -15, 44, 5, -9, 64, -50, 39, -12, 53, 22, -25, -47, -59, -30, 30, 29, 45, -46, 12, -42, 23, -2, -35, -4, -43, 54, -58, 38, -50, 13, -2, -55, -66, 34, 2, -7, 13, -21, 27, 13, -25, 36, 30, -18, 39, -34, 22, 25, -18, -3, -45, 6, -14, 5, 10, 3, -6, -10, -18, 10, 10, -20, 33, 39, -22, 0, -4, 27, 10, -43, -3, 19, 42, 30, -23, 26, 10, -60, -14, 17, -8, -18, 17, -60, -38, 22, -60, -57, 44, -3, 49, 35, 36, 2, -58, -5, -27, -5, 34, 43, -28, 51, -49, 38, 28, -45, 40, -42, -13, -30, -16, -33, -9, 15, 1, 74, 32, -23, -1, -11, -32, 27, 19, -6, 48, -49, -5, -43, -26, 9, -27, 12, 95, -31, 2, -40, -2, 0, -32, -12, -21, 2, 46, 32, -73, -17, 8, 72, 41, 23, -38, 9, -42, 85, 22, 40, 39, 32, 22, 8, -61, -31, -51, -5, 76, -44, -50, 60, 15, 38, -40, 7, 11, 39, 33, 7, -26, 45, -50, 23, -41, -39, 41, -50, 8, 29, 54, -48, 12, 28, 12, -7, -13, 19, -38, 51, 19, 48, 13, 29, 59, 53, -29, -11, -26, -11, 0, 50, -19, 57, -54, -27, 38, -27, 40, 50, 28, 41, -50, 19, 18, -13, -31, -21, 6, 14, -38, 37, 20, 20, -10, 6, 42, 37, -20, -43, 48, -73, -8, -52, 12, -36, 43, 58, 34, 59, -44, 51, -24, 3, -12, 8, -43, 20, 3, -8, -52, -46, 42, 8, 16, 33, 56, 46, 49, -30, -23, 24, -17, -1, 56, -51, 19, 51, 17, -27, 28, -31, 30, 3, 36, 33, -4, -3, 32, 7, -22, -9, -25, -39, -28, 65, 6, 55, -27, -37, -57, 23, -22, 55, 25, 7, 2, -24, 5, -4, 34, -17, 28, 8, 50, -59, -14, 22, 10, 33, 47, 54, -54, -14, 12, -27, -29, 69, 97, 8, -17, 55, 36, -12, -36, -39, -49, -58, -41, -7, -11, 24, -65, -81, 53, 52, 1, -10, -38, 7, 46, -4, 45, 0, -32, 33, 63, 64, -9, 6, -17, -21, -58, 2, -39, -38, 30, 15, -24, -67, 49, -38, -11, -46, 38, -70, -4, 9, 28, -49, 45, 66, -14, -44, 7, 7, 25, -33, 7, 60, 12, 1, -28, -15, -24, -25, 40, -18, -57, -39, -33, 21, -44, 29, -9, 23, -10, -10, -39, -10, -48, -55, -17, -8, 36, -33, -30, -20, -31, -18, 18, -14, -3, 45, 23, -47, -26, 34, -36, 12, -46, -56, 45, -83, 41, -27, 24, 34, 46, -17, -53, -54, -53, -36, 9, 36, -49, -16, 54, 5, -34, -32, 23, 33, -35, -69, -1, 39, 51, 69, 3, 47, 35, -6, 57, 4, -19, 34, -36, -16, 17, 14, 19, 41, -3, -24, -27, 75, 28, -46, 4, 16, 11, -58, 25, -31, -43, -9, -32, -45, 39, -1, 31, -32, 47, 44, -46, -32, -32, 35, 13, 41, 29, -70, 31, 19, -13, -38, 30, 40, -46, 49, 17, 47, 29, 49, -18, 51, -12, 7, -37, 0, -1, 45, -32, -2, 22, 14, -4, -56, 39, -22, 39, -34, 11, 23, 41, 49, -19, -22, -8, -11, -19, -1, 4, 10, -44, -8, 6, -48, -19, 47, -21, -15, 15, -33, -54, 28, 3, -15, -6, -79, -15, -29, -9, -22, -57, -19, -28, -2, -37, -3, -41, 1, 50, -29, -18, 59, -39, 30, -55, -32, -57, -50, -45, 4, 9, -24, -45, -33, -18, -3, -8, 27, -61, -3, 15, 14, -39, 19, 19, 53, -25, 52, -3, -61, -9, 3, 15, -4, -1, -53, 59, -11, 35, -30, -38, 43, 44, 58, -15, -46, -38, -5, 55, -48, -36, 2, 54, 32, -95, 37, -27, 55, 32, -29, -3, -42, 50, 22, -18, 11, -33, -16, -2, 11, 10, 20, -10, -14, -23, -27, -48, 25, -17, 56, 5, -1, -5, -29, 6, -37, -33, -25, 23, -7, -27, -54, -56, -23, -2, -26, -29, 43, -48, 53, 25, 10, 6, 72, 34, 6, 43, 45, -15, 37, -4, -36, -13, 2, 47, 49, -19, 13, -29, 72, 38, 32, 25, 23, 31, -55, -23, 31, -52, -13, 47, -26, -39, 32, -7, -43, -51, 12, 31, 3, -5, -38, 1, -10, -50, 15, 2, -26, -5, -10, -42, -54, -40, 48, -56, 0, 51, -44, -47, -50, -35, -40, 36, 9, 20, 23, -19, -26, 64, 12, -6, -39, -16, 50, 9, 66, -29, -10, 23, 54, 29, -52, 48, 0, -22, 44, 13, 44, -38, 60, -50, -3, 5, 28, -36, 23, 7, -51, 17, -21, 47, 53, -46, 0, 30, 16, 38, -27, 47, -16, -48, -2, -15, -43, 21, 34, 39, 52, 50, -27, 10, 17, 24, -44, -57, 6, -16, -34, -70, -49, 57, -8, 16, 54, -49, 17, -34, -19, 16, 15, 1, -55, 44, -33, 0, 41, -17, 74, -24, 3, 9, 35, 42, -8, 50, 9, -26, 53, -17, -17, 50, 51, 31, 11, 14, -30, -43, -3, 34, 4, -38, 4, -3, 40, 19, -10, 57, -27, -7, 56, 15, -35, 2, -75, -53, 84, 50, 25, 10, -16, 15, 0, 2, 35, 3, 17, -52, -23, 3, 41, -23, -55, -14, 52, 32, 35, -17, 26, 58, -56, 1, 49, -9, 15, -6, 51, -41, 28, -9, 41, -42, 22, -55, -24, 10, -33, -25, 54, -22, -2, 10, 69, 34, -8, -41, -40, -31, -52, -2, 50, -62, 30, -30, 3, 12, 26, -17, 4, 28, 7, 37, -47, -18, -5, -11, 61, -14, 17, -24, 5, 55, 2, 36, 27, -49, -40, -53, 52, -64, 29, -5, -29, -29, -35, -16, 55, -51, 48, -34, 24, -36, 11, 44, -17, -45, -9, -24, 11, 54, -13, -6, 60, 55, 17, 0, 43, -10, -18, 4, -18, -13, 50, 14, 1, 20, -33, -31, 17, 16, -55, 49, 62, -40, 71, -4, 25, -48, 13, 15, -12, 0, 30, 81, -44, 0, -9, 32, 18, -27, 25, -28, -38, 15, 29, 11, -46, -56, -16, 56, 63, -39, -20, -18, -60, -53, 21, -12, -8, -29, -18, 44, 4, 21, -11, -27, -37, -21, -4, -24, 76, -32, 20, 69, 32, 21, 8, 37, 12, 12, -22, -22, 40, 18, 54, -7, -16, -57, 9, -32, -52, -17, 40, -9, -35, 32, -13, -31, 0, 45, 17, 42, 39, -34, 26, 14, 49, 24, -14, -51, -26, 77, 4, 56, -58, 36, -3, -15, 8, -36, 14, 37, 39, -73, 34, -2, 18, -20, -9, 44, 55, -35, 0, 54, -63, -39, -43, -38, -25, 46, 13, -35, -43, -51, 37, -44, 44, -35, 6, 51, -33, -19, 52, -42, 3, 6, 54, -46, 44, -5, -5, -35, -30, 48, 29, 56, -8, 43, -30, -14, 40, -48, -47, -15, 65, 7, 27, 52, 31, 57, -39, -18, 28, 0, -18, 21, -17, -12, -38, 32, 57, -18, 18, 24, 12, 49, 3, -43, 61, -27, 51, 42, 1, 65, 37, 12, 23, 42, -20, 27, 35, 18, -30, -25, 41, -18, 55, 2, -30, -21, -31, -35, -19, -54, -20, -4, 50, -2, -54, 24, 23, -9, -6, -13, -35, -8, -5, 8, 69, -30, 47, -56, -12, -53, 16, 11, -14, -2, 65, -4, 51, 42, 64, 55, 27, -30, 1, 7, -41, 25, -25, 45, -8, -27, -48, 13, 14, 16, -31, 5, 0, 25, -33, -35, 25, 48, 29, 25, 44, 58, -30, 56, 33, 39, 95, 19, 59, -40, 34, 9, -26, 18, -28, -49, -23, 9, 0, -61, 15, 42, 2, -59, 43, 77, -33, 43, 75, -55, -41, 9, 53, -21, 37, -51, -21, -12, 15, -39, -50, -4, 44, 47, 21, -16, -54, -51, 36, -7, 41, 20, 48, 61, -50, -59, -2, -6, 20, -38, 42, -23, -1, -55, -65, 34, 27, 33, -28, -41, 62, 39, 37, -3, 7, 7, -4, -19, -52, 5, -25, 22, -14, -60, 21, 41, -43, -5, -48, -47, 28, -28, 40, -1, -9, -43, 52, 45, -64, 16, 47, 6, 5, -32, -42, 28, 4, -18, -8, -75, -43, -26, 63, 12, -13, 29, 49, -12, -50, 55, 30, 44, -17, 51, 13, -34, 14, 32, 52, -32, 2, -39, 10, -37, 12, -40, 29, 35, 56, 24, -25, 64, -18, 5, -7, 29, 37, -30, -12, 51, 29, -60, 41, 10, -6, -19, -31, 41, 4, -37, -29, -61, 43, -11, -21, 19, 65, -3, -24, 39, -50, 40, -32, 24, 34, 52, 32, -61, 44, 23, 43, 4, -46, -23, 65, 6, -4, 12, 55, 5, 30, -48, 41, -52, 45, 41, 17, -2, -1, -31, 37, 63, -8, 32, 14, 32, -56, -57, 15, -51, -35, -12, -20, 59, -46, 49, -35, 15, -51, 17, 50, 17, 37, -78, 1, -31, -25, 0, -37, -55, 3, 50, 15, -2, -48, -24, 37, -20, -36, 40, 46, 2, 12, -32, 64, -10, 28, 0, 36, -23, -59, -101, -27, -30, 8, 3, 23, -52, 3, -62, 26, -61, 18, -30, 8, -65, 7, 41, -18, -65, -40, -57, 50, -37, -35, -24, -45, 57, 11, -1, -15, -16, 40, -46, 33, -8, 42, -24, -36, -34, 55, -57, 23, -30, 15, -31, -54, -11, -51, 19, -17, -19, 33, 16, 12, -37, 52, -18, -1, -3, -60, -41, 36, -17, -59, -11, -35, -18, -33, 1, 19, -29, -13, 49, -54, 2, -15, -25, 8, -3, -2, 15, 4, -26, 23, 37, 11, 38, 40, 85, -31, 92, 13, -25, -19, 61, 3, -16, -16, 20, 12, -1, -29, 48, 47, 16, -12, -28, -37, -24, 29, 58, -5, -5, -23, 36, 10, -53, 80, -50, -42, -19, 54, -6, 39, 30, 59, 22, -26, -37, 32, 57, -5, -4, 41, -40, 48, 17, 25, -61, 19, -10, -54, -15, -48, 10, 75, 83, -45, 33, 41, -26, 46, -3, -2, -1, -43, -27, -44, 33, -11, -19, 44, -36, -65, -46, -15, -29, -3, 37, -51, -67, 31, -50, -32, -22, -15, 51, 19, 46, 65, -12, 13, -5, -50, 51, 37, 73, -53, 44, -2, 79, 24, 8, 58, -3, -30, 21, 7, 28, 41, 46, -20, -58, -2, 27, 24, -28, -33, 35, 28, -22, -13, -41, 50, -26, -7, -48, 30, 27, 51, -21, -40, 0, -8, -19, 73, -34, -40, -77, 17, 40, 36, -3, 23, -6, -13, 54, 37, 18, -52, -12, -24, 9, -36, 18, -2, 0, -42, 27, -4, -38, 55, -21, 2, 79, 49, 39, 61, 23, 43, 43, 47, 41, -17, -40, 36, -66, -44, 22, -8, -2, 35, -5, 13, -8, -52, 5, -29, 44, 20, 4, 3, 70, 36, 7, -13, -1, -2, 12, 8, 3, 32, 2, -7, 59, 34, 16, 50, 4, 51, -42, -19, -4, -55, 48, -42, 50, 42, 48, -17, -1, -19, -35, 7, 32, 10, 25, 51, 86, -24, 75, -20, 11, 57, -25, -32, -38, 78, 7, -38, 7, 8, -45, -20, 52, 32, -8, -40, -8, 35, -9, -72, -6, -17, -11, 30, 42, -17, -41, 16, 19, -27, 21, -10, -39, -47, -49, 11, 65, 34, 3, -12, -65, 29, 48, -38, 65, 8, 21, 73, -58, -51, 25, -52, -3, -22, 4, -47, 31, -58, 52, -25, 26, -45, -6, 58, -21, 23, 14, 38, -45, 66, 66, -20, -2, 29, 52, 30, 13, -25, -13, 7, -67, 11, -57, 48, 56, 13, 28, -17, 10, 13, -41, 0, -10, -23, -44, 29, -28, -30, -63, 22, -36, -46, -46, 53, -18, -37, -38, 35, 2, -27, -29, 6, -22, -10, -2, 20, -20, 44, 60, 41, 26, -27, 40, 13, -57, 53, 49, 15, -2, -50, -50, 11, -9, 6, -36, -52, -40, 16, -6, -22, -4, 19, 53, 58, 11, -50, 45, -35, 40, -11, 36, 18, -29, 19, -53, 10, 9, -47, -42, 24, -27, -14, 10, 58, -22, 15, -34, 0, 3, 34, -35, 44, 62, -37, 16, -36, 1, 6, -47, -28, -41, -2, -19, 18, 52, 6, 18, 23, 34, -55, 11, -26, -37, -4, 29, 28, -2, 27, -38, 46, -34, 15, -51, -41, 58, -1, -38, 52, -15, 10, 46, -14, -55, -4, -49, 22, -5, -11, -13, 46, -13, 14, 56, 1, -18, 28, -48, 7, -13, -18, 51, 12, -16, 33, -56, 23, 76, -37, -46, -25, -11, 9, 12, 66, 39, 46, 39, -17, 33, 18, -24, 40, 50, -37, 16, 55, 51, 52, 25, 42, 46, 78, 19, 6, -24, -1, 45, 16, 12, -19, -24, -40, -48, 34, 41, -22, -15, 29, 75, -20, 68, -29, 8, -7, -30, -44, -36, 75, 38, -14, 11, -26, 18, 24, -10, 33, 18, -31, -27, -6, -25, 9, 33, -33, -65, -29, 42, 57, 5, -3, 63, -47, 62, -59, -25, 53, 56, 48, -22, 66, 48, 0, 6, 26, 5, -25, -7, 48, 33, -3, 39, -18, 61, -31, 64, -45, 3, -6, 11, -53, 21, -26, 41, -13, -35, -3, -10, 9, 23, 31, -45, 60, -26, 9, -52, -8, 43, 54, -9, -3, 22, 40, 38, -21, -32, 14, 26, 66, 78, -42, -30, -33, 38, 49, -41, -46, 4, 17, 0, 2, -2, 3, -1, 46, 31, -15, -59, 10, 38, 9, -23, 35, -38, -21, -39, 32, -24, 41, 88, -12, -6, -41, 48, 71, 38, 32, -9, -3, -40, 30, -12, 66, 27, -18, -50, -48, -46, 53, -44, 3, 9, 25, 57, -31, -56, 12, 4, 32, 1, 22, 64, -5, -23, 51, 20, 40, 45, -12, 61, -34, -27, -6, -20, 0, -28, -20, 70, -33, -24, 36, 0, 67, 5, 59, -44, -14, 3, 35, -14, 47, -13, 22, 52, 48, 47, -14, -48, 31, 9, -22, 34, -45, 27, 30, 34, -37, -16, -43, -19, -16, -37, -24, -37, 0, 32, -32, -49, 37, 46, 70, -56, 18, -48, 46, -41, -31, 18, 4, -8, 5, -35, 45, 49, 48, -13, -58, -36, -4, 64, -27, -9, 44, 44, 5, 8, -11, 25, -17, -12, 41, -7, -24, -45, 17, -34, -14, 32, 22, -49, 40, -24, 64, 41, 2, -47, 37, -1, 16, 12, -39, 77, 31, -49, -49, -34, 7, 36, -17, 22, 38, -19, -16, 49, -7, 36, -52, -34, -33, 9, 36, -70, -49, 40, 58, -49, 38, -26, 13, 42, 41, 41, 20, 75, -7, -59, 59, 36, -25, -63, -6, -15, -33, 49, -10, 36, 18, -63, 46, -46, 51, 38, 40, 9, -26, -43, -2, -41, -55, 35, -33, 16, -25, -17, 20, 95, 1, -8, 84, 31, 8, 8, 15, -56, 69, 45, 15, -26, 11, -7, 15, -3, 22, -60, -52, 22, 24, -7, 46, -13, -17, 35, 56, 50, 18, -19, -3, 29, -37, 40, 2, 17, 5, 35, 57, 62, -12, 47, 35, -69, -36, 49, -5, -26, -30, -19, -34, 12, 17, 9, 0, 46, -12, 35, 51, -54, -79, -30, -28, 51, 46, 14, -37, -27, -40, -66, -14, 0, -29, 13, 15, 10, 43, -14, -42, 54, 19, 1, 23, 22, -41, 50, -32, -65, 55, -10, 31, 6, -26, -44, -30, -6, -50, -42, -31, 12, -12, 5, -22, -31, 43, 39, 18, 11, 41, 30, 15, -43, -18, -93, -26, 42, 20, -17, 45, -49, -52, -21, 50, -8, -19, -21, 2, -29, 11, 58, 46, 38, -3, -7, -37, -30, -5, -9, -40, -38, 74, -2, -10, 21, 50, 19, 54, 72, 9, 19, 65, -28, 7, -33, -17, 36, -26, -25, -5, 87, 48, 21, 8, -15, -25, -50, 42, -42, 59, 30, 9, -48, -40, 22, 36, -13, -47, 11, 19, 7, 18, -27, -30, -19, -28, 19, -36, -60, 54, 11, -10, 13, 22, 30, -28, -4, -30, 9, -48, -56, 81, 7, -36, -40, 17, -30, -48, 10, 51, -4, -43, -13, 15, -17, 88, 26, 3, 5, -54, -13, -50, 47, 7, -41, 1, 22, 70, -10, -47, 3, 56, -36, 61, 0, -15, 25, 97, -27, 1, 56, -31, 30, -41, 34, -14, -37, -9, -8, 21, -23, 17, 18, 38, -13, 48, -15, 31, 3, 10, 27, -1, -29, 39, -7, 64, 42, 12, -9, -11, -6, 31, 46, -31, 32, 34, -44, 55, -10, -29, 20, -47, 51, 6, -39, -9, 57, -4, -4, 17, 72, 22, 6, -8, 25, 10, -28, -64, -46, -51, 3, 73, -27, 6, -6, -46, -45, 14, 0, -7, -24, 25, -32, 39, 17, 42, 55, -44, -2, 74, 43, 11, -32, -1, -56, 25, 30, 47, -4, -52, -49, -47, -17, 51, -43, -12, 45, 46, 74, 17, 53, 13, -36, 50, 46, -1, -53, 12, 6, 32, -35, 29, -43, -25, 23, -32, -32, 16, -14, 22, -9, 67, 50, -45, 9, -5, -14, 14, 24, 31, 21, 22, -25, -43, 33, -8, 25, -44, 67, 24, 65, -33, 11, 67, -7, 51, 4, 44, 55, 43, 42, -40, -40, 35, -37, -33, 28, -11, 53, -9, -28, 58, -32, -30, 12, 41, 62, -17, 11, -25, 73, -25, -8, 18, -9, 17, 46, 40, 13, -43, -49, 30, -25, -32, 32, -29, 4, 36, 45, 46, 4, 5, 3, 9, 24, -43, -8, 40, -39, -42, -42, 25, 27, -37, 34, -26, -3, -5, -38, -43, -48, -65, 11, -60, 29, 52, 50, 79, -33, -23, 51, -18, 35, 37, -33, -4, -18, 25, -12, -30, -24, -48, 56, -57, 0, 46, 75, -35, 11, 55, 70, 21, 22, 48, 10, 58, -9, 10, -38, 20, -11, -5, 31, -6, -27, -12, -44, 46, -29, 35, 27, 39, 5, -28, -27, 28, -9, -39, -12, 31, -29, 22, 68, -9, 54, 15, -33, 37, 6, 25, 40, -14, -10, 53, 0, 78, 22, -22, 26, -49, 47, -25, 8, 49, -25, -35, 7, 37, -45, 48, 5, -38, 43, -12, 51, 41, 46, 6, -21, 33, -21, -52, 17, 78, 37, -28, -52, 73, 25, -45, 33, -34, -40, 7, -61, 44, -46, 36, -10, 2, 16, 9, 54, -30, -51, 37, -13, 34, 44, 49, -1, 41, 27, -29, 36, 37, 31, 3, -40, 40, -16, -26, 75, 18, -18, -24, 14, -45, 24, 34, -6, 35, 24, 0, 55, 0, -34, 9, -16, 12, 14, -31, -40, 47, -40, -40, -50, 6, 34, -45, 15, -21, 37, 32, 30, 16, 55, -24, -11, -25, 14, 29, 23, 49, -27, 41, -29, -16, 2, 15, 13, 18, -30, 57, -45, -10, 21, -16, 24, -16, -52, -34, -7, -37, -49, 42, -32, 21, -10, -22, 58, -22, 7, 45, -2, -52, 11, 20, 72, 46, 46, 40, -25, -48, 50, 10, 7, 66, 6, 29, 24, 82, 45, 10, -8, -1, -19, -10, -17, 12, 59, -34, 32, 47, -49, 28, 38, -21, -10, -11, 51, -23, 51, 1, 56, -26, 35, 39, -40, -50, -63, 21, 9, -41, -49, 37, 13, -2, -44, 0, -44, 41, 2, -41, 30, 6, -30, 33, -42, 45, 40, -13, 27, 19, -30, 27, -36, -36, -15, 21, 19, -9, -30, 15, 38, 24, 39, -14, -49, 78, 22, -51, -29, -5, 37, 22, 58, -44, 37, -11, 42, -35, -14, -41, -43, 67, 57, 15, -7, 37, 13, 36, 3, 37, -37, -40, 25, -56, 49, -48, -30, 41, -58, -19, 35, -4, 18, -50, 75, 21, 32, 30, 11, 49, 8, -8, -10, -32, 33, -13, 84, -48, -14, 4, 50, -40, 39, -3, -39, 11, -14, -7, 13, 72, -57, -53, -23, -42, -79, -16, 55, -16, -24, -33, 47, -24, -67, -19, 11, 23, -23, 41, 64, -16, -23, 35, 5, 3, -66, -37, 2, 38, -49, 18, -18, 82, -49, -25, -37, 11, -13, -3, 33, 3, -40, 12, -7, -19, 70, -51, 41, 48, -27, -5, 35, -19, 72, 15, 21, -32, 62, 56, -36, -21, -32, -37, 7, 44, -4, -25, 30, -38, 96, -3, 60, -45, 22, 5, 31, -40, 34, 5, -22, 20, -18, 23, -17, -25, -10, -49, 26, 13, -36, 34, -14, 5, -23, -53, -37, -20, 43, -7, -30, -34, 44, 3, 94, 20, 5, 14, -51, -8, 38, -3, 40, 23, -27, 47, -4, 30, -34, -13, -43, 34, -32, 9, -45, 11, 15, -4, -7, 40, -28, -23, -22, -32, 1, -21, -36, -27, 51, -4, -43, 55, -19, -37, -59, 23, 8, -18, -30, 36, 4, 0, -24, -36, 1, -43, 56, 64, 33, 15, -20, 73, 43, 52, -18, 13, -10, 5, 19, -2, 54, -33, 4, 19, 7, 35, 45, -23, -28, 59, -26, 46, 62, 67, 49, 60, 29, 17, -41, -46, -18, -15, 42, -33, -27, 44, -24, -45, 12, -10, 14, 17, 0, 8, 42, 52, 74, -3, -34, -25, -13, -7, -26, 1, -26, -9, -30, -23, 12, 7, -6, 33, -27, -34, -66, -13, -38, 27, 17, -38, 19, 15, -3, 1, 25, 28, -10, -41, 71, -20, 67, 33, -23, -5, 5, -9, -28, 55, -30, -7, -25, 23, -23, 56, 44, -60, -5, 25, -5, 36, 30, 31, -52, 70, 22, -50, -51, 61, 12, -8, 61, 17, -13, -39, 10, -1, 16, -12, -4, -33, 35, 34, 25, -21, 10, 11, -43, 11, -7, 80, 49, -26, -26, -34, -59, 22, 10, 12, -45, -28, -8, 5, -36, -21, 27, -6, 30, 41, 46, 20, -21, -27, -28, -33, -63, -45, 24, 38, -9, -4, -13, -13, -45, 57, 49, 62, 13, -11, -8, 11, -47, -5, 47, 23, 19, 30, 6, 20, 8, 24, 20, -45, -21, 23, 54, 1, 45, 34, -3, 76, 51, 6, -19, 67, -29, 12, 4, -16, 53, 3, -42, 48, -53, 43, 29, 42, 13, -27, 12, -19, 48, -13, -10, -52, -15, 65, 38, 23, 49, 55, -51, -39, 36, 14, -8, 63, 18, 0, -18, -23, -18, 42, 29, -54, -14, -7, -41, 17, 15, -50, 34, 42, 5, 44, -10, 43, 1, -20, -40, 48, 8, -48, 50, -28, -33, 3, 12, 43, -17, -24, 7, -3, -57, -11, -41, -10, -44, 45, 53, 19, 0, 47, 41, -19, 7, -15, 23, 50, 9, 1, -34, -25, -33, 47, -38, 29, -38, 34, 46, 57, 35, 0, -6, -52, 10, 24, -3, -11, -40, 56, 70, 39, 72, 42, 18, 46, -18, -34, 37, -38, 32, -54, -11, 52, 43, 42, 32, 14, -8, 4, -28, 69, 43, 34, 7, 29, -62, 5, 55, -46, 5, 19, 18, -22, -6, -8, -16, 19, -28, 13, -47, -27, -56, 53, 54, 44, -2, -21, 21, 29, -40, 28, -3, 7, -29, -5, 58, -17, 0, -14, 29, 34, -56, 0, 12, 50, -75, -27, 79, 4, 38, -8, 72, -46, -75, 81, 51, 34, 9, -58, 17, 84, -16, -38, -24, 5, 34, -13, 69, -24, -30, 17, 38, -27, -15, 38, -54, 56, 81, -20, 27, 27, 20, -22, 30, 39, 57, -18, -3, 35, 9, -29, -1, -11, -45, 3, -39, 22, 1, 0, -19, -13, -16, 24, 59, -3, -42, -26, 24, -44, -26, 5, 39, 43, -53, 18, 34, 38, -53, -40, 47, -11, -6, 28, -39, 47, 15, 18, 4, -35, -53, 4, 44, -56, 41, -16, -35, 7, 0, 18, -39, -37, 52, -18, -35, 38, -42, 2, 70, -7, 58, -51, -19, 50, -28, 57, -58, 80, 33, 34, -39, 3, -14, -13, 76, 0, -23, 57, 85, -34, 27, 81, 20, -14, 8, 26, 72, -15, -10, 33, -37, 33, 100, 51, 50, -1, -27, 52, -15, 91, 15, 51, -54, 48, -56, 19, -7, 16, -63, 39, 19, 41, 17, -16, -58, 41, 10, 54, -16, -57, 48, 27, 34, 25, -17, -27, -1, 36, -43, -11, 55, -45, 45, 43, -6, -40, -22, 36, 38, 6, 60, 52, -64, -52, 26, 53, 14, -26, 20, 1, -5, 26, 2, -34, 20, 57, 18, -15, 24, -47, 10, 59, -15, -13, -18, 7, 35, -9, -5, -3, -9, -16, 73, -84, 39, -15, 0, 24, -26, 48, -12, 51, -3, 6, 20, 77, 41, -18, 71, 24, 34, -17, 6, -42, 56, -24, 30, -19, 40, -24, 14, -47, 12, -30, 1, 11, 13, 35, 21, -20, -44, -57, 53, 43, -12, 6, 1, 62, 18, 26, -78, 21, 24, -45, -46, 11, 10, 11, -47, -43, -8, 33, -29, 13, 75, 11, 22, 55, 54, 50, 33, 24, -42, -15, -41, 7, 48, -29, 58, 18, -1, 31, -24, 14, 32, -47, -35, 14, 15, 11, 36, 2, 44, 16, -34, -43, 68, -35, 2, -21, -3, 57, -14, 29, 32, 22, 52, 23, 50, -17, -15, 43, 82, 40, 29, -8, 1, -18, -16, 20, 18, 57, 59, -54, -40, -29, -3, 54, 41, 22, 66, -3, 56, -12, 8, 1, 51, -21, -15, -45, 32, 58, 9, 36, 27, -1, 73, 60, 14, -30, -5, 57, 41, 73, 3, -9, -6, 61, -7, 37, 30, 63, 4, 42, 52, -27, -46, 61, 61, 12, 10, -35, 3, -18, -3, 24, 33, -50, 14, 72, 42, -11, -20, 50, 43, 9, 17, 15, 40, -20, -4, 18, 39, 5, 56, 9, 35, -55, 20, 50, 25, -19, -11, -32, -1, -23, 43, 70, -32, -13, -41, -35, 43, 5, 63, 29, -5, 29, 33, 61, -54, 23, 53, -28, -34, 54, 40, 1, 53, 30, -39, 16, -45, 59, 33, -48, 20, 36, 41, 23, 41, -15, 35, 0, -45, 48, 21, -42, 22, -15, -33, -2, 21, 47, -25, -27, 20, -21, 9, -40, 1, -43, 65, 55, -34, 45, -25, -23, 18, 20, -55, 59, 60, 65, 10, -9, -25, -21, -55, -20, -35, -13, 57, -37, 37, 5, -51, -40, 5, 55, 0, -55, 15, 49, -51, 59, 38, -20, 56, -1, 75, -6, -18, -55, 16, -51, -20, -32, -4, -10, 7, 13, -1, -22, -22, 7, 47, 11, 48, -28, 77, 4, 31, 23, 39, -12, 49, -11, 22, -20, -30, -23, -24, 21, 5, -11, 0, 29, 5, -14, 40, 12, -56, 0, -14, 36, 17, 49, 15, 60, -11, -16, -28, 32, -48, 65, 31, -2, 45, -45, 12, 40, 16, -37, 25, -25, 32, -24, 20, 48, 34, 66, 54, -49, -36, -37, 12, 5, 52, 41, 39, 79, -14, 44, 27, 35, -34, 3, 61, -11, 29, 10, 4, 7, 12, 11, -67, -58, -30, -23, 2, -14, -51, 9, 15, -40, -39, -15, -47, 35, -11, -31, -37, -18, 0, -25, 34, 35, -14, 40, -51, -19, -6, -5, 39, -60, 62, 15, 77, 2, 11, -51, 37, -23, -19, 15, -19, -35, 52, 32, 40, 50, -7, -7, -38, 22, -30, 31, -10, -9, -48, -8, 15, 30, 36, 11, 43, 35, -44, -42, 12, -10, -44, 41, -5, 7, -18, 5, 2, 33, -2, 45, -58, 23, 0, -14, -21, 16, -25, -3, -26, 28, 2, 48, 44, -8, -42, -21, -50, -24, -17, -6, -45, 35, -57, 14, -4, -24, -11, 22, -5, -31, -48, -28, 26, 46, 32, 45, -60, 16, 51, -16, -8, -11, 56, 4, -79, -34, 42, -31, -7, 19, -18, -4, 40, 36, -36, 44, 37, -25, -53, -39, -22, -52, 12, 43, -37, -4, 56, -6, 44, -6, -57, -11, -33, -10, -61, -49, 59, -46, 4, 25, -42, -3, -46, -48, -31, 5, -27, -18, 6, -44, 58, 58, -36, -26, -35, -2, -7, 37, 32, -18, -53, 20, 6, 57, 61, 10, -5, -10, 74, -37, -20, -32, -6, -2, 69, 49, -23, -19, -43, 4, 18, -6, 23, 30, 21, 31, -50, 3, -14, -8, 38, -3, -23, -58, -48, 16, -59, -21, 39, 41, -1, -22, -35, 15, -9, -31, 49, -40, -34, 41, -55, 23, 86, 32, -49, 65, 43, -43, -14, 50, 31, 79, 17, -5, 48, -4, 11, -47, 72, -48, -6, 32, 82, 37, -8, 0, -8, 3, 34, -45, 44, 62, 26, 52, -7, -32, 1, 67, -30, -16, 23, 14, -11, 10, 14, 46, 31, 14, -2, 23, 40, 36, 61, 4, 95, 30, 40, 32, 8, -8, 74, 39, 81, -20, -9, -35, 64, 47, 8, 61, -10, 23, 6, 63, 26, 11, 21, 29, -29, -22, -17, -44, 35, -10, 6, -2, 6, -27, -46, 49, 36, 24, 34, 5, 22, -44, -5, -30, -39, 45, 117, 3, 28, 43, -27, -30, 49, 94, -43, 37, -27, -13, 36, 23, 34, 13, 64, 67, -18, 54, 28, -13, 35, -62, 65, 25, 28, 22, -42, -40, 0, -29, 26, 27, 28, 51, -7, 14, -38, 41, -38, -58, -21, -24, 11, 44, 40, 53, 23, -22, -29, -34, 5, -26, 47, -59, 28, -39, -56, 37, -32, -23, -24, -13, 79, -6, 29, -50, 15, 51, -44, 39, 37, 49, -6, 31, 11, 49, 31, 4, 31, 21, -20, -31, 51, 81, 32, 40, 13, -29, 56, 61, 11, 60, -27, -43, 90, 56, 33, 14, -17, 59, 42, 40, 52, 45, -1, 48, 1, -16, -13, -13, 21, 36, -8, 17, 39, 0, -24, 17, -4, 6, -18, 55, 44, 20, 59, 17, 17, -3, -19, -23, 53, 1, 11, 58, 55, 0, 6, 17, -13, 5, -38, -57, 4, -35, 47, -7, -34, 38, 11, 3, 1, -29, 34, 61, 48, 26, 26, -27, 89, 12, 26, -56, -77, -46, -8, 60, 59, -29, 34, -15, -49, 19, -36, -54, -71, -55, -42, 36, -49, 1, -24, -31, 36, -16, 8, 47, -45, -5, -10, 54, 40, 22, 42, -2, 26, 39, -56, -4, 12, -35, -24, 60, -21, -35, 8, 6, 46, 30, 4, -18, 51, 2, 26, 35, 4, 26, 3, 16, 36, 52, -9, -32, 27, 58, -35, -19, -29, 14, 56, 75, -43, 8, 20, -3, 54, -41, 49, 34, 79, -47, -7, -17, 28, 30, 55, 42, 1, -32, -22, 40, -53, -39, 28, -36, -47, 25, 48, -49, 21, 31, 49, -42, 17, 15, -11, 90, -11, -47, 78, 1, 37, -22, -20, -22, 56, -13, -3, -21, -4, -34, 25, 20, 23, 73, 39, -35, 70, 11, -3, 37, 17, 28, -37, 92, -48, -45, -22, 20, 25, -18, 70, 23, 33, 38, -6, 37, 18, 73, -7, 0, 82, 10, -21, -1, 55, 49, 27, 31, 66, -40, 40, 57, -51, 62, -49, -8, -23, -14, -5, -15, 44, -36, 27, -20, -20, -38, -23, 40, -3, -5, 55, 36, 35, 16, 7, -55, -44, 68, 37, -16, 84, 18, -22, 46, 9, 23, 34, -32, -26, -11, 42, -43, 32, -51, 32, 13, 1, -43, 30, -15, 16, 4, 6, 14, 4, 47, 6, -57, -5, -32, -29, -7, 54, 87, 0, -20, 34, 72, -23, 81, -22, 52, -28, 69, 40, -29, 55, -17, 7, 5, 3, -49, 15, 1, -2, -31, 14, -5, -20, 6, 37, 56, 19, -47, 60, 40, 58, 8, -38, 35, 50, 92, 4, 21, -31, 53, -51, -39, -20, -7, 13, 18, 20, 13, 19, -4, -41, 17, 22, -23, 11, -46, -45, 43, -28, -11, 67, 68, -7, -46, -50, -38, 40, 49, -41, -51, 32, 34, -41, -19, -43, 58, 54, -15, 18, -10, 43, 20, 23, -49, -32, 0, -13, 57, -13, 37, 9, -9, 82, 62, 54, -42, 18, 18, -39, 69, 6, -16, 32, 70, 64, -23, 33, 38, 90, 49, 12, 51, 30, -55, -1, -17, -5, -4, 5, 28, 47, 30, 55, -26, 28, 64, -46, -6, -16, 65, 49, -9, 45, 5, -26, -15, -36, -14, 58, 49, 15, -14, -38, 44, -43, 60, 13, -14, -17, 48, -22, -57, 43, 45, 51, -12, -26, 82, 44, 12, -62, -6, -45, 58, -37, -51, -21, -5, 44, -52, -4, 23, -11, -3, 50, -22, -27, 54, 20, 26, -5, 5, -51, 33, -40, 37, -42, -48, 55, 36, 1, 32, -31, -13, -50, -5, -12, 10, -37, 42, 10, 1, 25, 12, 1, 49, -21, 10, -19, 71, -40, 51, -21, -27, -32, -59, -34, 28, 45, -43, -51, 9, -1, 54, 13, 17, -39, -39, 3, -2, 0, 68, -22, -5, -15, -14, -38, 3, 52, 0, 56, 53, 32, 7, 9, -13, 31, 20, -1, 12, 18, -2, 53, 77, -56, -45, -31, 60, 17, 62, -30, -19, -1, -43, 46, 23, -13, 28, -20, -59, 13, 52, 52, -29, -4, -54, -10, 21, 15, -21, -43, 45, 56, 32, -29, 12, -31, -6, -16, 40, -12, 43, 44, -2, -45, -22, 38, -50, 30, -8, 11, -45, -1, -6, 18, 91, 13, -17, 63, -25, 61, -22, 8, 2, 92, -22, 32, -23, 7, 56, 28, 29, -2, 0, -35, -10, 52, 8, -1, 7, 52, -45, 48, -50, 25, 2, -64, 3, -34, -8, 99, -27, 47, -56, -32, 47, -19, 8, -25, -31, 48, -27, 7, 51, 49, 39, 6, -45, 12, -14, 3, 43, 18, -58, 75, 59, -19, -27, 4, -26, -25, -51, 75, 17, -3, -14, -53, 11, 31, 54, -31, 67, -1, 42, 41, 37, 38, 48, -33, 22, 34, 27, 31, -32, 19, 28, 51, -41, 37, -31, -23, 14, 53, 7, 53, -23, 13, 12, -30, 15, 50, 36, 14, 17, 7, -49, -32, -65, -4, 56, 30, 35, 15, -3, -22, 63, 19, 50, 65, -49, 56, 34, 7, 59, 22, -3, -45, 29, 54, -1, 48, 23, 78, -9, -32, -6, -18, 48, -3, 39, 47, 7, 41, 19, -14, -20, -36, -47, -19, -47, 56, 59, 10, 24, -47, -19, -30, -60, 83, -46, 18, 31, -25, -16, 64, 16, 60, -1, -5, -23, 4, -1, 17, 62, -31, 29, 48, -11, -11, -13, -20, 41, -41, 53, 34, 27, -4, 36, 38, -13, 31, -20, -62, 54, 1, 11, 11, 30, -19, -9, -27, 35, -18, 69, 41, 10, 36, 50, 14, 87, 5, -9, 16, 0, -11, 7, 15, -40, -33, 25, -1, -30, -11, 25, -6, 20, 44, 7, -60, -39, 60, -24, -46, 9, -26, 1, -40, 26, -31, -29, -26, 43, 4, 3, -27, -39, 23, 66, 51, -47, -26, -48, -15, 46, -26, -29, 2, -58, 41, 46, 17, 53, 15, 0, 42, 23, -9, -2, -30, -6, -27, -21, 6, 27, 0, 52, 43, 16, -20, -26, -45, -22, -25, -13, 28, 42, -9, 55, -35, 5, 58, 29, -27, 53, -59, -17, -55, 41, 26, -10, -1, 79, -1, -12, -26, 50, 19, 35, -20, 14, 62, -2, 38, 53, 6, -9, -36, 27, 1, 41, 6, 18, 36, 65, 52, -28, 32, -15, 20, 43, -1, -26, -36, -19, -5, 2, -34, 54, 18, 13, -22, 65, 22, 27, -2, -36, -7, -1, -50, 20, 8, 53, 49, -54, -6, -36, 46, 7, 33, -2, 47, 41, -21, -30, -6, 19, -39, 13, 15, 49, 5, -31, 84, -4, 61, 42, 57, -39, 28, 4, -53, -19, 17, -37, -5, -23, -4, 58, -3, -28, 7, 82, 5, 7, -30, -28, 16, -11, -43, 14, 37, -54, -52, -2, 67, 9, -18, 58, -15, -49, 15, -22, -7, -35, -16, -54, -57, 44, -50, 7, -10, 5, -8, -8, 28, -51, 8, -30, 17, 28, 17, -30, 25, 42, -10, -14, 38, 5, 55, 13, 40, 18, 26, 36, 4, -59, -16, -6, 17, 11, -21, 41, 0, 49, 32, 15, -1, -11, 34, 13, 3, 71, -32, 59, -17, 35, -50, 40, 22, 37, 56, 46, 83, 57, 17, 0, -7, 23, -10, 36, 83, -37, 61, -4, -1, 34, 38, 74, -38, 9, 71, 0, 6, 50, 10, 35, 58, 12, -22, 6, -43, 40, 44, 9, 20, 43, 53, -44, 10, 26, -26, 17, -2, 16, -15, -18, -29, -10, -7, 6, 9, 4, 62, 26, 19, 90, -23, 18, 13, 7, 0, -37, 67, -25, 30, 10, 39, -35, -48, 45, -22, 6, 36, -19, -7, 57, -45, -2, -1, 38, 81, 41, 20, -23, 14, 49, -31, 29, 43, 59, -9, 24, -4, -24, 54, -13, 13, 79, -18, -51, 8, 37, -40, -24, 1, 29, -18, -3, 39, 38, 57, -41, 22, 61, 5, 30, -43, 28, 57, 20, -1, 4, -41, 7, -14, 32, 1, 56, 50, -35, 77, 40, 27, 43, 1, -28, -37, -40, 44, -5, -2, -19, 15, -13, -10, 55, -32, -4, 53, 31, -50, 55, -25, 1, 18, -11, -42, 47, -16, 58, -37, 11, -9, -46, -13, 77, 3, 12, -11, -32, 72, -11, 38, 26, 51, -21, 58, 72, 51, 39, 6, 51, 50, -43, 34, -47, -8, 6, -7, -5, -8, 14, 97, -8, 6, 26, -5, 4, 47, 51, 32, -43, 35, -10, 13, 64, 14, 38, 51, -54, 15, -11, 52, -20, -49, 32, 51, 40, -44, 86, -4, 48, 59, -3, 80, 42, -1, 2, 9, 30, -54, -13, -16, -30, -39, -40, 37, 16, -13, -32, -5, -38, 37, -19, -10, 55, -50, -26, 29, 18, 7, 33, 43, 11, 15, -32, 49, 70, 49, -10, -18, 13, 30, 46, 33, 1, -27, -7, -36, -5, 66, -19, -64, 10, 21, -12, 47, 19, -40, 105, -3, -40, 19, -40, -6, 9, 36, -47, 65, 6, 52, 46, 21, 11, 30, 11, 21, -29, 60, -13, -54, 13, 5, 40, -3, -38, 7, -44, -65, 41, -50, 78, -37, -48, 4, 38, 46, 42, -33, -50, -29, 39, 24, 12, 35, 45, -42, -6, 55, 34, -7, 28, -19, 36, -24, -18, 47, 34, 55, -44, -10, -40, 47, -12, -45, 31, -18, -8, -11, -21, 10, -42, 92, -33, 8, 42, -59, 12, -49, 59, 79, 16, -23, -38, 41, 18, 18, -29, 39, 4, -42, 44, 25, 43, -23, 85, 6, 3, -39, 17, -53, -12, 14, -27, 106, -6, 41, -49, 13, -22, -52, -36, 25, -24, 10, -7, -44, 50, -21, 11, -33, 70, 28, -38, 39, 9, -11, 25, 2, 52, 48, -13, -28, 12, 3, -64, -48, 10, 29, -7, -40, 10, -8, 45, 30, -4, -37, 16, -1, -24, 15, -48, -46, 4, -24, -1, -53, -50, -29, 20, -21, 19, 58, -24, 47, 57, -16, -32, 55, -12, 106, 44, 51, 2, -60, -50, 61, -32, 28, -52, 14, 50, -21, -3, 41, 60, 44, 12, 37, 46, -49, 14, 5, 23, 27, 50, -44, 4, -1, -55, 87, 67, 75, 17, 6, -16, -53, 23, 32, 52, 46, -24, -29, 29, 14, -8, 65, 32, -32, 60, 32, 3, -3, 77, 51, 12, 62, -6, -4, 41, -25, 24, 40, 53, -41, -39, 18, 31, 19, -8, -37, -56, 42, -13, -16, -29, 29, 6, 48, -59, -57, 50, 3, -25, -44, 0, -3, 10, -3, 95, -8, 2, 2, 36, 106, 43, 85, -10, 40, -7, 0, -53, 84, 51, 3, -47, -42, 32, 35, -13, -15, 60, 20, -45, 50, -5, -27, 59, 20, -38, -8, 23, -3, 3, -20, 39, 16, 15, -7, 26, -42, 3, -40, -26, 79, -52, 84, 51, -16, -45, 33, -43, 1, 38, 35, 59, 32, -9, 58, 81, 21, -28, 53, -24, 18, 21, -48, -31, 92, -12, 82, -13, 33, 19, 53, -48, 18, -22, -11, -40, 33, 26, 62, -35, 48, 47, -1, -11, 6, 36, 40, -21, -49, 31, 10, 24, 36, -19, 72, 7, 7, 55, 16, 47, -30, 15, 11, -53, -11, 13, 56, 39, 26, 22, -7, 47, -5, 52, 30, -2, 2, 59, -24, 6, -1, -7, 53, 22, -35, 6, 34, 2, 39, 19, -22, -6, 3, 31, 47, -23, 82, -26, 15, 21, 51, 44, 62, -25, 37, 74, -54, 24, 6, 26, -60, 4, 52, 38, -38, -34, -19, 19, 11, 14, 83, -19, -7, 16, 32, 4, 32, 38, 76, -50, 19, -23, 4, 43, 60, 43, 63, 45, 9, 34, 37, 66, 10, 51, 18, 39, -33, -5, 28, -53, 64, -10, 85, 10, -28, 0, -59, 2, -53, -34, 20, -17, 69, 33, 60, -24, -12, -36, 44, 11, -19, 66, -13, 18, 11, 13, -44, -28, 24, 3, -49, -38, -28, -10, -19, 6, 25, 55, 29, -22, 22, 30, 8, 37, 28, -52, -27, 29, -18, -11, -4, 63, -55, -14, -14, 39, -24, -31, -16, -33, 43, -36, 1, 2, 2, -30, -7, -25, 50, -37, -24, -9, -52, 17, -51, 14, -6, 48, 43, 69, -23, -19, -7, 43, -54, 28, 7, -15, 0, 57, 12, -50, -41, 78, 28, 52, -35, -44, -13, 21, 29, 28, 10, -3, -25, 8, 60, -9, 10, -26, -6, 48, 46, -44, 74, 76, -60, -18, 15, -33, 53, 76, 60, 36, 22, 50, 6, 45, 0, -47, 68, 34, 70, 20, -9, 65, -40, -15, -3, -48, 19, -10, -3, -8, -36, -22, -25, 80, 2, 22, -22, 68, -12, 20, -29, -17, 35, -32, -55, 20, -37, 5, 30, -4, -17, 27, 22, -31, -1, -16, 47, -4, -32, 44, 43, 52, 38, 3, 45, 45, -3, -34, 29, -34, 19, -6, 52, 20, 16, 63, -19, -43, 59, -32, 69, 19, 56, 9, 24, 72, -5, -46, -7, -28, 88, 3, 52, -7, -36, 12, 4, 61, -50, -44, 52, 78, -36, 40, -26, 54, 46, 25, 30, 52, 36, -31, 36, 21, 32, -47, 29, 34, -13, -15, -36, -20, 47, -50, -33, 20, 36, 2, 44, 11, -2, -20, -67, -34, 29, 21, 43, -26, -15, -10, -42, 34, -39, -26, 59, 31, -13, 26, 43, -27, 45, -22, 4, 51, 67, -5, -55, 16, 48, 41, 21, -25, 49, 2, -12, 9, 20, 88, -37, -57, 10, 3, -5, 33, -3, 7, 99, 74, 45, 37, -18, 21, 29, 33, -4, -7, 51, 37, -35, -19, 61, 10, 6, 24, -20, -23, 55, 6, 21, 19, 31, 14, -24, -33, -53, 48, -14, 35, 79, 70, -19, 6, 23, 94, -9, -20, 63, -49, -13, -2, -44, 53, -20, 29, 18, 91, 56, -5, 52, 59, 22, 8, -1, 5, 47, 21, 8, -37, 14, -8, 1, 48, -23, -45, -29, -34, 0, 9, 41, -2, 4, -40, 7, 21, 49, -10, 36, 28, 16, 6, 25, 48, -13, 82, 20, 30, -61, 14, -8, 29, 0, 33, -24, 7, 46, -39, 20, 25, -53, -8, -16, -19, -40, 21, 12, 78, -7, 22, 4, 65, -23, -55, 14, -9, -45, 14, -57, 22, 21, -3, 3, 5, -41, 51, 63, 53, -15, 56, -56, 9, -19, -53, 58, 13, 68, -24, 1, 38, -27, 23, 70, 6, 53, 7, 33, 51, -26, 46, -52, 26, 19, 41, 15, 41, 40, -15, 50, 16, 45, 10, -16, 7, -25, -3, 63, -11, 18, 54, 59, 37, -34, -7, 52, 41, -6, -49, 21, 15, 50, -6, -31, -29, 3, 71, -9, 47, 24, 42, 35, -25, -45, -28, -7, 52, -29, -26, 54, 0, -14, -45, -34, 56, -15, -32, 81, 76, -23, 42, 90, 78, -22, 87, -15, -21, 58, 11, -54, -56, 80, 9, 98, 15, 51, -25, -41, 71, -33, -26, 108, -19, 24, -32, -32, -14, -28, -57, 50, 12, -47, 5, -34, 8, 50, 30, -7, -29, 37, 43, 53, 26, -27, 49, 67, 36, 49, -41, 28, 19, -40, 34, 13, 54, 94, 6, -4, 67, 10, 29, 85, 19, 10, -4, 69, 14, -33, 71, -56, 15, 41, -31, 59, 30, 26, 37, 1, 16, -29, -54, -49, 35, -55, 13, -21, 3, 67, 30, -35, 82, -2, 9, 116, -31, 44, 33, 8, 18, -15, 80, 1, 14, -4, -4, -5, -17, 24, 55, 46, 78, 77, -5, 54, 34, -10, 25, 60, 28, 55, -69, 24, 4, 29, -49, 0, -40, -25, 14, -15, 27, -40, 52, -12, 25, 14, -33, 28, -62, 75, -33, -13, -21, 55, 20, 31, -7, 45, 2, 56, 34, 59, -5, 41, -4, -7, 12, -26, -28, -23, -49, -22, -32, -25, 75, 27, 38, 4, 7, -39, 16, -10, 41, -58, 63, 14, -5, -41, -28, 8, 6, 35, -35, -31, -10, -13, 36, 26, -14, 21, 65, 31, 5, -60, -17, -24, 3, -4, 3, 45, 56, 36, 48, 14, 59, 6, -47, -8, 2, -3, 36, -33, 50, -16, -2, 13, 37, 11, 24, -23, 51, 76, -4, -1, 25, 40, 37, 20, -3, -11, -46, -6, 58, 44, -1, 7, 49, 37, 88, 97, 28, 47, 88, 47, 23, 73, -40, 21, 48, 36, -7, 30, -46, 107, 16, -36, -17, -44, -45, 34, 66, 12, -27, -1, 60, -23, 9, 19, 20, 39, -7, 13, 27, -25, -12, 0, -16, -24, 4, -3, -6, 32, 37, 35, 30, -5, 20, -6, -51, -33, 39, -8, 77, -32, 27, 33, 25, -4, -37, 49, -14, 44, 29, -62, 4, -43, 40, -46, 59, 33, 29, -40, -30, -29, 40, 28, -45, 8, -27, -2, 52, -20, -2, 9, 6, 2, 36, -42, 53, 16, 2, 29, -34, 41, 61, 41, 26, 13, 20, -27, 39, 72, 48, -24, -17, 11, 18, 70, 22, 40, 39, -41, -14, 46, -14, 24, -35, 19, 31, -21, 5, 35, 52, 42, -52, -15, 40, 38, -3, 23, -27, 17, -45, 5, 11, 77, -8, 18, 68, 14, 39, -16, 3, 5, -16, -11, -50, -19, 63, 36, -26, -51, 36, 19, 19, 30, 7, 56, 15, 60, -4, -6, 10, -35, 21, 50, -38, -17, -28, -24, 35, -13, 62, 52, 34, -33, 62, 13, 35, -35, 34, 51, -31, -16, -12, 35, 27, -30, -11, 28, -19, 57, 25, -13, -16, 50, -45, 32, -33, 86, -23, 51, 5, 29, -14, 18, -1, 2, -12, 36, 39, 17, 21, -35, -50, -15, 16, -7, 47, 26, 34, 84, 61, 36, -55, 10, 18, 60, 43, 40, -6, 91, 51, 6, 40, -2, -38, 1, 70, 8, 2, 60, 71, -14, 88, -25, -31, 6, 37, -40, 25, -10, -41, -6, 5, -2, 22, 46, 39, 0, -31, 27, 52, -6, -9, 14, 31, 9, -4, 78, 31, 14, -49, 23, -21, 34, 51, -29, -15, -47, 75, 48, 5, 42, 38, -13, 39, 16, 56, 32, -33, 14, -35, -18, -27, 61, 14, 18, 72, 4, -52, 19, 22, -13, 53, -49, -1, -9, -28, -4, -42, 54, -51, 53, -20, 12, 28, -31, 27, 21, -31, -17, 41, -19, -16, 6, -56, 11, 8, -45, -13, -9, 57, -15, 22, -39, -26, 43, 24, 19, 35, -53, -39, -34, 74, -1, -51, 70, 1, 101, 26, -25, 40, 18, 76, -27, -1, 73, 10, 66, 21, 37, 16, 12, -10, -1, 58, 14, 16, 32, 32, -36, 16, 5, 19, 26, 25, 33, 22, 18, 27, 63, 26, -25, -6, -24, 69, 7, 25, 57, -36, 41, -54, 53, 77, 49, -52, -26, 19, -22, -34, 30, 64, 48, 101, -19, -33, -43, 5, 15, -3, 71, 63, 60, -9, 65, -43, -13, 32, 40, 50, 36, -16, -5, -18, -29, -33, -7, 20, 32, 4, -56, -12, 5, 32, 54, -4, -24, -63, 7, 94, -19, -26, -31, -7, 25, 73, 30, -56, -17, 71, 33, -19, -25, -16, 74, 10, 16, 73, 68, 1, -37, 79, 50, 4, -4, 4, -34, 78, -39, 27, -38, 58, 44, 28, 8, 11, -40, 52, 73, 8, -60, 42, -33, -6, -8, 10, 6, -27, -6, -26, -23, 21, 68, 28, -53, 13, 31, -12, 20, 37, 0, -36, -62, -18, -2, 45, -11, 50, 12, -4, 5, -56, -53, 32, 27, -42, 6, 16, 58, -46, -55, 11, 37, -35, 90, 35, 25, 31, -1, 39, -39, 95, -20, 46, -54, 25, 0, -1, 17, 45, 33, -2, 7, -26, 24, -7, 56, 46, 30, -5, -12, -25, -45, -19, 23, 23, 36, -6, 51, -44, 38, -34, -49, 92, -41, -36, -45, -10, 11, 42, 12, 53, 67, 23, 122, -3, -36, -2, 35, -5, 94, -43, 38, -22, -55, 21, 26, -20, 75, 47, 55, 52, 1, 21, -22, 6, 3, 16, 50, -49, 33, -13, -14, -55, -15, -18, -56, -40, -62, 57, 26, -45, 33, -6, 35, 35, 0, 19, 38, 27, 23, 65, 45, -47, -39, -41, -30, 47, 28, -36, -25, 65, 25, 43, -37, -9, 80, 56, 49, 36, -11, -11, -19, -33, -12, 27, -27, -17, -3, 28, -27, -20, 25, -3, -5, -19, 38, -34, -9, 46, -15, 54, 30, -43, -34, 29, -14, -32, 84, 91, 1, 37, -7, 77, -45, 57, 75, -20, 15, -20, -28, 35, 28, 20, 104, 64, -20, 37, 0, 58, -32, 51, 18, -29, 38, 94, -58, 47, 2, -40, 69, 38, 75, -24, 38, 41, -18, 28, 10, 1, 41, 62, 2, 62, -20, -44, 65, 17, 30, -44, 22, -18, -18, 9, 33, 35, -33, 35, 42, 42, 45, 47, 24, -15, -21, -45, -36, 18, 26, 30, -9, 53, 25, 11, 51, -3, -9, -53, 85, 26, -19, 10, 14, -13, 19, 42, -42, -48, 23, 32, -47, -24, 40, 44, 24, 77, 44, -51, -38, -19, -5, 31, 74, -14, -18, 30, 48, 3, 23, -47, 72, -7, 51, -25, 10, 42, 30, 90, -42, -51, -47, 17, 2, 29, -28, -51, 68, 11, -17, -3, 53, -20, -53, -7, 24, -21, 71, 12, 26, -6, 28, 51, 54, 24, 36, 2, 35, -13, 14, 71, 50, -41, 35, -9, 48, -31, 71, 7, 63, -34, -69, 27, 41, 4, -35, -55, 5, 48, -8, -20, -7, -7, 36, -36, -51, 59, -7, 39, -13, -1, -46, 45, -2, 46, -50, 39, -43, -28, 26, 57, -26, 54, -37, 14, -39, -15, -28, 42, -2, -29, 28, 44, 1, -18, -10, 43, 8, 7, 36, -17, 1, 45, -10, 67, -34, 3, 27, 26, -43, 39, -16, -42, 50, -18, 83, -15, -1, -1, 11, 30, -2, -14, -6, 53, -9, 42, 73, 24, 59, 72, -30, -60, -6, 6, 53, 15, -26, -21, 15, -35, -1, -14, 71, 12, -33, -48, -23, -22, -57, -6, -47, 41, -25, 1, 42, 51, -42, -17, 29, -9, 4, 29, -56, 50, -27, 64, 32, 91, -50, 27, -29, 1, 23, -42, 9, 3, 56, 41, -6, -42, -13, -15, -48, 23, 88, -28, -20, 51, 3, -39, 45, 45, 10, 10, -48, -23, 74, 60, -34, 19, 38, -40, -9, 18, 42, 30, 13, 24, 37, 12, 2, -20, 15, 82, -9, -13, 28, -4, 36, -17, -29, -16, 1, 43, 5, 50, -7, 11, 51, 38, 38, 30, -49, 19, 14, -9, 14, -25, 49, 40, 88, -14, 65, -53, 3, 67, 7, -30, 18, -35, 66, 20, 36, 30, 4, -1, 91, 50, 0, -20, 71, -30, 51, 76, -4, 35, 48, 68, 52, -46, 63, -47, 15, -19, -70, -48, -17, 30, 52, -25, 47, -3, 12, -15, -22, 13, 29, -12, 34, 29, -7, 23, 50, 58, -31, 75, 36, -28, -23, -40, 5, -48, -53, 14, 64, -3, 89, 34, -57, 35, 6, 0, -24, 7, -37, -31, 10, -27, 37, -31, 49, -21, -6, -2, -40, 31, -19, 70, 6, -38, 15, -14, 52, 2, 30, -35, 15, -47, -40, -1, -10, 77, 15, 23, 13, -2, 74, 26, -6, 55, 11, -1, 80, 68, -44, 19, 41, -26, -38, 3, 11, -9, -22, 80, -48, -31, 44, 0, 18, 51, -25, -32, -49, 5, 37, 22, -5, -36, 51, 32, 46, 57, 45, 37, 17, -21, 49, -45, 13, 18, 27, 20, -33, -29, -27, 46, 49, -10, 21, -1, 36, -22, 54, 0, 29, 79, -45, -11, 24, -52, 52, 56, -2, 27, -26, -46, -11, 31, 53, -19, 20, 19, 12, 41, -10, -47, 19, 51, 5, 39, 1, -31, 72, 11, -38, 50, -11, -47, 43, 27, -24, -51, 17, 58, 47, -39, -19, 45, 102, 13, 4, 20, 56, -44, -39, 40, -20, 20, 36, -20, 12, 31, 22, 0, 73, 71, 4, -35, -6, -12, 32, -56, 85, 33, 99, -27, -62, -37, 92, -26, 69, 51, 9, -41, 30, 51, 4, 61, 46, -60, -42, -24, -8, 31, 88, 16, 35, -9, 63, 0, -51, -39, 30, -45, 50, 23, 99, 47, 17, 47, 16, 38, 17, 8, -35, -31, 54, 9, 12, 38, 7, -55, 58, -1, 21, 21, -35, 55, -2, 23, 5, -13, 38, 1, 35, -25, 17, 54, 27, -32, -39, 40, 36, -5, 31, 57, 45, -22, -3, 48, -6, 88, 17, 39, -39, 13, -55, -31, -22, 21, -1, -31, -22, -9, -43, 1, -47, -28, 74, 9, -14, -41, 20, 77, 20, -23, 52, -19, -25, -57, 27, 7, -56, -25, -44, -6, 5, 10, -8, -7, -28, 15, 6, 42, 4, -21, 24, 8, -15, -35, 69, -25, 73, 27, 10, 58, -4, 10, 96, 36, -37, 54, 58, 2, 54, 27, -20, 28, 8, 28, -8, -50, -12, -50, 47, 73, 107, -48, -31, 68, -16, 51, 75, 32, 77, 49, -16, 37, -24, 5, 79, 17, 43, 51, 47, 2, 39, 96, -7, 26, -9, 16, 11, 3, 87, 57, 75, -19, 19, -1, -19, 77, 47, -30, 45, -34, 30, 8, -12, -12, 60, -44, 71, 37, -11, 23, -37, -15, -17, 103, 38, -51, 51, 0, -58, 37, 87, -19, 74, -14, 22, -9, 0, 61, -24, -38, 13, -51, -22, 21, -27, 34, -7, 2, 38, 79, 12, 8, 4, 46, 39, 66, -33, 16, 48, 44, -60, 33, 5, -36, 59, 1, 100, -28, -42, -35, -28, -12, 117, -30, 69, 66, 21, 0, -10, -2, 73, 31, -33, 52, 12, 5, 33, 54, -20, 16, -3, -40, -25, -20, 19, 43, 12, -44, 62, 28, 49, 63, 36, -13, 22, -11, -1, 32, -19, -9, -29, 34, 67, -12, -16, -37, -30, 11, 53, 58, -29, 33, 39, 58, 1, -6, -1, -42, 22, -41, 32, -32, 43, 42, 30, 48, 46, -48, 19, 59, -13, -38, 39, -35, 28, 79, 37, 54, -16, 40, -25, -18, 26, 47, -22, 4, -9, -60, 60, -45, 36, -13, -19, -6, -14, 63, -28, -47, 37, 55, 37, -46, -45, 12, 25, 45, -24, 57, 9, -9, -49, 50, -46, -11, -8, 17, 52, 45, -46, -32, 19, -38, 17, 44, 41, -4, 4, -15, 7, 28, -7, -49, 32, -7, 12, -41, -24, 30, -12, 75, 52, 38, 54, 16, 57, -13, -14, -46, -14, -23, 27, -53, -9, 30, -36, 0, -33, -56, 19, -28, 50, 23, 29, -39, 105, 12, -10, -20, 27, 14, 35, 48, 9, -47, -17, 18, 13, 11, 14, -11, 18, 46, 49, -35, 74, -54, 18, 5, -20, -51, -41, 56, -19, -5, 8, -54, 23, 10, 51, 69, 53, -55, 58, 14, -32, -26, 33, 61, 9, 40, 2, 21, -49, 67, -42, -47, 46, 17, -1, -14, -6, -26, 3, 12, -27, 2, -20, -49, 88, 23, 16, 16, 56, 31, -2, 52, -6, 9, -14, -2, -28, 2, 42, -20, -15, -24, 53, 17, 67, -15, 15, 7, 58, -42, 26, -2, -2, -44, 39, -14, 92, 9, -50, -20, 38, -48, 81, -35, -9, 45, -31, 52, 56, 18, 40, 16, -47, 37, -27, -46, 52, 36, 9, -13, -30, -56, 36, 8, 0, -11, 23, 28, 24, -39, -41, -7, -21, 5, 32, 24, -4, 15, 51, -30, 13, 46, 53, 12, -24, 63, 2, 58, 83, 43, -12, 48, 37, 11, -19, 69, 55, -4, 26, -17, -14, -17, 27, -11, 76, -53, 20, 81, 22, -37, 5, -43, -29, 33, -34, 7, 1, 39, 54, -25, -29, 51, 22, 62, -19, 51, 34, 25, 31, -51, 10, 34, -45, 6, -58, 34, -46, 10, -13, -26, 36, 16, -5, -8, -29, -3, -45, -42, 10, -11, -42, -51, -31, 5, 43, 31, 68, -3, -48, -21, -45, 34, -5, -25, 54, -27, 30, -1, -27, 47, 79, 22, 43, -33, 48, -53, -53, 52, 18, 40, 25, 71, -32, -46, 83, 20, -18, 59, -1, -51, -59, -31, 58, 51, 23, -36, 74, -1, 7, 28, 54, -6, 83, 59, -37, 58, -7, -33, 9, 65, -13, -8, -32, 70, -30, 57, 2, 47, -32, 18, 27, -28, 4, -3, 48, -43, 60, -44, 39, 9, 47, -22, -9, -51, -3, 5, -21, 15, -11, -18, 15, -35, 33, -40, 1, 68, 47, 50, -44, -40, 77, -6, 39, 3, 38, 41, 42, -51, 79, 26, 14, -42, 17, 54, -43, -47, 31, 71, 33, -9, -41, -23, -9, 47, -5, -21, -30, -3, -35, -19, 17, 55, 59, 16, 73, -28, 8, -8, -12, -38, -1, -24, 60, -52, 15, 60, 3, 47, -34, 78, 27, -37, 70, 61, -55, -6, -26, 22, 3, 16, -38, -38, -5, -27, -20, -6, 50, -43, 11, -25, -18, -7, -11, 2, -13, 10, -52, 69, 8, 3, 8, -28, 13, 40, -29, -10, -51, 14, 5, -53, -59, -27, 25, 21, -23, -22, 70, -28, 17, -57, 5, -16, 59, 36, 70, 48, -45, 57, 52, -11, 37, -52, 43, 58, -17, -5, -27, -16, 40, 20, -31, -45, 42, -9, -16, -14, -3, -32, 9, 24, -1, 17, -11, -44, 28, 50, 56, -1, 83, 15, -35, -46, 18, -18, 56, 80, -26, -44, 55, 19, 47, -1, -25, 52, 10, 52, 35, -35, 29, 67, -7, -5, -1, -3, 27, 46, -40, 4, 66, -31, 87, 28, 14, 29, -19, 35, 62, 67, 31, 38, 41, -34, -44, 45, -30, 53, 3, 42, 11, -40, 10, 58, 42, 12, -40, 1, -26, 31, -13, -49, 62, 45, 6, -47, 47, 48, 0, -5, 75, -25, 0, 49, 14, 64, -3, 49, 45, -25, -21, 28, -38, 28, 1, -30, 82, 23, 4, 21, -39, 49, -29, -16, 27, 11, 66, 41, 27, 7, 8, -19, 37, 54, 35, 44, 43, 61, 50, 101, 1, -35, 37, 67, 33, -48, 19, -25, 81, 15, 29, -42, 43, -29, -8, 34, 44, -46, 18, -10, 36, 8, -8, 2, 67, 62, -2, 18, 56, -27, -29, 92, 18, -23, -53, -14, -10, 25, -4, -51, 38, -5, 61, 8, 13, 66, 12, -55, 64, -34, 67, 29, -1, 17, 7, -53, 26, -2, 46, -30, 3, 21, 35, 17, -45, -28, 4, 7, -2, -56, -1, -54, 87, -4, -20, 2, 40, 32, -41, 12, 97, -37, 98, -56, 43, -7, 41, -12, 39, 65, 12, -45, 72, 36, 21, 42, 8, 47, 31, 35, 15, 44, 55, -8, 80, 72, 52, 28, -55, 68, 17, 27, -16, 22, 86, 11, -11, 18, 20, -45, 22, 54, -29, 37, -32, 72, -36, 26, -41, -3, 36, 49, 30, 27, 31, -14, 96, -22, 89, 29, 31, -31, 22, 26, 67, 11, 95, 50, -13, 74, -28, 11, 42, 43, 25, -46, 25, 16, 40, -30, 41, 6, 24, 40, 17, -41, 11, 0, 60, 26, -43, 46, -52, -19, -39, 36, 9, 27, -18, -17, 13, 59, -16, 43, 13, -64, -50, 33, -41, -37, -35, 59, -58, -43, 41, 68, 8, -19, 8, 27, 54, -1, -32, -45, 5, 29, 29, -66, 37, -53, 49, -52, -1, 31, 33, -1, 4, 21, 10, -35, 38, 61, 49, -9, -7, -16, 14, 49, -8, 0, 61, -42, 65, 6, 39, 44, 26, 59, 40, -37, 1, 42, 7, -6, -55, 84, 23, -35, 75, -31, 58, 15, -8, -23, 38, 49, 57, 18, -34, 32, -15, -43, 25, 27, 79, -32, 16, -55, 20, -18, -8, 53, 1, -1, 48, 62, -57, 46, -39, 33, 14, -29, 14, 51, 54, 80, -5, -6, -54, -53, 58, 26, -14, 27, -22, 28, -2, 20, 55, 13, 49, 56, 47, -12, -3, 19, 63, 48, 11, -37, 12, -57, 53, -21, -29, -39, 67, 8, -5, 64, -14, 59, 17, 57, -8, 42, -8, 33, 12, -17, 45, 13, 8, 77, -45, -17, 29, 20, 82, -54, 41, -27, -3, 55, 107, 83, -56, -37, 9, 72, -4, -59, 4, 28, -44, 81, 32, 1, 1, 1, -13, 8, 93, 42, 9, -31, -20, -22, 5, -20, 82, -16, -45, 58, -18, 35, 27, -55, -47, -34, 36, 14, 4, 33, 46, -14, 25, 36, -28, 53, -52, -14, 82, -8, 35, -41, -48, -41, -27, -18, 28, -33, -20, 46, -4, 15, 5, -51, 32, 44, -32, 17, 42, -25, -44, 89, 31, 17, -3, -52, 41, 14, 41, 49, 17, 7, 18, -11, -44, -11, -12, 53, 68, -27, 32, -13, -10, 62, 9, 28, 62, 5, 47, 20, 57, -47, 6, 22, 11, 11, -30, -5, 24, 14, 60, -31, 28, 62, 87, 53, -43, 4, -13, 38, 46, 50, 52, 38, 13, 57, 21, 51, 49, 58, 52, -27, 20, 62, 65, 51, 31, -54, -59, -27, 49, -40, 0, -1, -12, 15, 4, -52, 42, -15, -6, 11, 20, -20, 16, -4, 16, 0, 58, -13, -15, 39, 49, 17, 64, 24, -5, -20, 27, -52, -15, 75, -4, 15, -25, -9, 78, 74, 30, -18, 20, 37, 2, 24, 68, 54, 48, 13, 41, 31, -28, 23, 70, 12, -16, 28, -23, 42, 44, 79, -37, 46, -16, -13, -40, 19, 24, 44, 66, -43, 18, 20, 52, 37, 59, 38, 55, 19, 6, 5, 49, 56, -22, 33, 70, 16, -41, 19, 16, 59, -17, 56, 14, 7, 3, 19, -23, 23, -25, -10, 66, -41, 46, -48, 14, 3, 36, -36, 43, -51, 46, 0, -45, 58, 76, 1, -40, 92, -34, 19, -14, 18, 39, -20, -40, -5, 19, 2, -50, -33, 2, 1, 21, 0, 36, -36, -4, 51, 38, -10, 60, -6, 5, -33, -29, 5, 33, -12, 50, 52, -32, 13, 6, 82, -17, -8, -10, 4, 2, -21, -23, -27, -25, -31, 23, -10, 40, 35, -9, 21, -45, -46, 50, -39, 42, 47, -20, -3, -15, 39, 42, 23, 27, 28, 6, 62, -38, 82, -2, 38, -14, -7, 34, 25, -46, 0, 73, 4, 70, 15, -37, 26, 48, 7, -8, -56, 89, 59, -37, 38, -25, -42, 71, 20, -32, -49, 52, 18, -21, -16, -17, 54, 52, 60, 44, 6, 26, 8, 2, -10, 8, -40, 22, 44, -8, 11, -38, 4, 7, 15, -54, 7, 26, 25, 6, 70, -38, -17, -14, 48, 28, 46, -21, -53, -7, -5, 34, 18, 12, 30, 79, 13, -36, 13, 30, -7, 38, 24, -10, -13, 20, -27, -52, 20, 58, 15, -33, 82, 6, 28, 17, 39, 18, 94, -4, 19, -23, 17, -30, -40, 40, 33, 47, 53, 98, 9, -41, 66, -20, 47, 57, 27, 99, -48, 19, -17, 70, -41, 58, 68, 11, 34, 4, 65, 30, 67, 46, -24, 21, 19, -7, 40, 29, 29, 104, 7, 38, 35, -44, 30, -5, 25, 0, -38, 13, -42, 57, -7, 31, 25, 53, 88, 6, 23, 23, 49, 50, 77, -27, 38, -30, 59, 0, 56, -17, -19, 37, 97, 39, 52, -24, -22, -28, 42, 89, -9, 54, -10, 5, 81, 17, -51, 39, 24, 49, 18, -41, 50, -45, 94, -61, -30, 23, 24, 26, 41, 43, 37, 40, 2, 26, -35, 29, 44, 57, -50, 70, 49, 27, 49, 46, -5, -23, -3, 91, -20, 53, -40, 65, -30, 51, 61, 12, -50, -48, 2, -56, 20, -34, -5, -21, 51, -82, 25, -47, 73, -24, -20, 39, 23, -4, 18, -37, -2, -15, -19, 75, 47, 43, 10, -22, 63, 28, -4, 55, 34, -36, 44, -35, 48, 18, -23, 68, -15, -8, -45, -16, 47, -16, 43, 84, 49, 26, 45, 31, 67, 73, 27, 45, -22, -58, 15, 87, -13, -7, 20, -44, -52, -21, -19, -58, 6, -14, 17, 41, -23, 25, 51, -20, 43, 47, -7, 49, -52, -14, 37, -41, 25, 90, -31, 31, 15, 35, -31, 44, 9, -19, 71, 37, -8, -33, -22, 41, 43, 65, 26, 80, 42, 86, 45, -55, -18, -6, 54, 81, 6, 59, 11, 24, 46, 62, -45, 4, 93, -35, -26, 84, 53, -28, 46, -33, 40, -30, -5, 22, -39, 17, 11, 19, 95, 51, -7, -3, 23, 37, 51, 89, -11, 61, -10, 44, 2, 57, -14, 78, 9, -35, -13, -6, 28, 37, 37, 2, 7, -3, 61, 51, -43, -25, -36, 88, 31, 15, 48, -46, 23, 7, 26, 7, 16, 43, -14, -51, 29, 21, -27, 41, 31, -15, 15, 39, 15, -45, 69, -14, -24, 21, 103, 41, -48, 64, -13, 0, -10, 86, 21, -54, 68, -28, 46, -5, -11, 72, -28, -29, 11, 69, -30, 75, 55, -13, -30, -17, -32, -18, 91, 35, 54, -6, 16, 41, -34, 57, -45, 45, -21, 32, 28, 39, 1, -13, -39, 38, 52, 23, -32, 43, 64, 27, 41, -56, 19, 41, 24, 12, 84, 52, 32, 32, -15, 36, -13, -32, 22, -4, -62, 108, 56, 71, 23, 1, 58, 46, -41, 4, -16, -7, 51, -45, 67, 25, 27, -18, 26, -30, 62, -30, -23, 5, 57, 37, 27, 23, -36, -13, -43, 5, -21, 61, 14, 28, 48, -23, 17, -38, -14, 10, -53, 23, 31, -2, 34, -6, 56, 70, 43, -22, -2, 41, 64, -54, 93, 10, 13, 11, -28, 53, -6, 37, -37, 20, 36, 29, 56, -42, 16, 28, 51, 69, 26, 95, 39, 3, 47, -17, -4, 69, 56, -53, -4, 46, 10, 57, -22, 41, -42, -14, -1, 41, -48, -19, -3, 34, 50, -23, -15, -44, 26, -33, -36, -8, -31, 2, 29, -39, 64, 59, 38, -27, 73, -1, -32, 43, 50, 55, 31, -1, 37, -42, 20, 12, -12, -15, 49, -12, -17, -4, -14, -19, 62, -20, 1, 1, 56, 42, -73, -11, 4, 33, -6, 50, 46, 14, -2, 30, -30, 25, 41, -44, 38, -43, 54, -43, -18, 26, -10, 60, 35, -6, -11, 32, -6, 3, -12, -5, -49, 31, 35, -13, 17, 35, 2, 45, -1, -50, -46, 52, 4, 36, 41, -57, 56, -59, 51, -32, -41, 1, 45, -42, 17, 56, 34, 51, 34, 20, -54, 65, 6, 90, -9, 14, -27, -13, 45, 11, 43, -12, 56, 58, -19, -28, 30, -2, -52, 52, 48, 46, -29, -30, -22, 37, 29, 66, 50, 0, 47, 5, -2, -45, 45, 32, -66, 13, 80, -34, 50, 80, -23, 30, 7, 4, 42, -1, -28, -38, 19, -35, 20, 28, 55, -22, -16, 6, -36, -23, -10, -3, 20, -3, -17, 60, 23, -22, -29, 53, 7, 16, 17, 37, 15, -49, -34, -7, -6, 50, 54, -28, -2, -46, 53, -9, 20, 68, -31, -43, 47, 15, 25, -29, 54, -22, 16, 46, -18, -7, 40, 31, 70, 20, -25, 68, 55, 53, 27, 7, 44, -8, 30, 56, 16, 32, 38, 0, 50, -16, 49, 8, 38, 47, 9, -41, 55, 11, 52, 7, 23, -5, 22, 44, 4, 33, -14, 22, 47, 55, 29, 94, 64, 53, 40, -51, -43, -39, 12, 19, -23, -2, -34, -48, 61, 61, -46, 23, 14, -10, -46, 50, 10, 48, 3, 5, -26, 29, -38, -10, 30, 9, -10, 67, 7, -43, 42, -30, -41, -14, 50, 0, 9, -3, -2, 30, 0, 54, 36, -37, 44, 44, 10, 28, -29, 65, -47, -20, 62, 88, -38, -7, -19, 5, -50, 57, 66, -17, 86, 18, 6, -53, -42, -40, 43, 35, -31, 55, 61, -25, 56, -56, 19, -54, -40, 43, -54, 8, -58, 15, -19, -9, -49, -17, -18, 22, 8, 42, 49, -26, 36, 14, -56, -22, 24, -30, 16, 3, -21, 81, 60, -22, -54, -13, 5, 19, -7, 21, 55, 77, -44, 26, 39, -20, -36, 40, -67, -34, -45, -27, 25, 47, 76, 13, -18, -43, 80, 1, -23, 7, -57, 28, 55, 75, 21, -29, 9, 17, -27, -17, -48, -56, -59, -17, 51, -57, 44, -57, 46, 12, -31, -4, 53, -48, 37, 39, 4, -24, 44, 27, 7, 67, 37, 5, 69, -24, -12, 6, 63, 47, 43, 86, -35, 21, 7, -48, -18, -36, 2, 72, 25, 30, 47, -72, 32, 20, 56, 40, 7, -51, 60, 19, 32, -31, 44, 3, -42, -26, 52, 52, -36, -20, 4, 69, 47, 103, 28, -24, 55, 55, -50, -48, 45, 17, -20, -13, 33, -33, -1, -32, -33, 9, 31, -11, 54, 79, 59, 0, 15, 59, -55, -13, -19, -8, -32, -12, -29, 14, 20, 14, 60, 31, 7, 45, 27, 37, 35, 33, 64, -9, 25, 12, -43, -59, 73, 57, -45, 25, -39, 52, -1, 68, -54, 1, 25, 51, 39, 20, 36, 35, 7, 26, -11, 6, 12, 55, 34, 36, 12, 9, 26, 20, 36, -9, 23, 11, 18, 51, -40, 55, 2, 25, 21, 12, 44, -2, 23, 39, 27, -8, -16, 7, -29, 10, 84, 72, -1, 57, 62, 5, 50, -21, 80, -30, 36, 54, -14, 48, 10, 27, 42, 47, 54, 101, -21, 89, 38, 26, 51, 60, 36, 24, -15, 12, 3, -16, 45, -30, -47, 2, 72, 50, 52, 69, 17, 15, 16, 1, 45, -36, 22, -34, -3, -57, 45, 30, 63, -55, -5, -53, 41, -22, -10, 64, 17, 3, -21, 11, 49, 57, -26, 52, 55, -54, -50, -30, 6, 28, 39, 40, -38, 16, 11, 49, 44, -9, -48, 59, 24, 73, -12, 9, -34, 28, 49, 53, -21, -25, 16, 18, 48, -2, 6, 4, 45, 53, -9, 15, 12, -1, -5, -24, 13, -33, 7, -2, 43, 14, -48, -11, 46, 34, 46, -41, 61, 46, 47, -30, -23, -1, -22, -19, -27, 13, 7, -36, 7, 34, 55, 3, 41, -23, 18, 9, 35, 37, -4, 36, 35, 57, 49, 17, 48, 63, 49, 12, 4, 28, -14, 99, 45, 97, -9, 39, 67, 103, 34, 91, 52, -51, -9, 19, 11, -7, 64, 40, 33, 61, -34, -50, 30, -5, -48, 31, 60, 33, -6, 53, 75, 40, 42, 17, -33, -3, 67, -9, 2, 37, 57, 11, -34, -3, 2, 61, 4, 16, 84, 47, -12, -1, 28, 31, 2, -34, -51, 62, -17, 1, -19, -13, 6, 29, -6, 39, 46, 68, -3, -16, -28, 57, 36, -6, 40, -32, -14, -43, 36, -16, 79, -15, -42, -47, 20, 11, -33, 54, 19, 37, 47, 19, 43, -45, -18, 43, 44, -28, -8, 12, -17, 1, 41, -26, -7, -19, -1, -56, 61, -19, -11, 38, 5, 30, -36, 44, 80, 25, 29, -27, -16, 81, 74, 26, -51, 17, 69, -28, 27, 49, 55, 52, 1, 26, 61, 45, -42, 47, 3, -40, -40, 1, 44, 56, 10, -6, 31, 14, 73, -15, 43, 39, -8, -7, 24, 79, 35, 10, 35, -20, 5, 25, -23, 27, 14, 40, -11, 11, 21, 53, 9, -22, 8, -1, -7, 23, 94, 48, 33, -25, 42, 25, -24, 73, -53, -46, 72, -21, -41, -15, 15, 40, 7, 69, -8, 16, -40, -23, 68, 80, -33, 49, 4, -40, -33, -7, -25, 44, 69, 32, -29, -49, 47, -14, -42, -23, 8, 15, 11, 38, -55, -10, 44, 46, -12, 53, -26, 62, -29, 49, -24, 49, 37, -32, 34, -26, 5, -19, 12, -30, 93, 34, -17, 5, 19, -17, -36, -46, 3, 0, 4, 23, -11, -52, -24, 52, 35, 74, 0, 39, -11, 45, 20, -9, 5, 38, -3, 44, -50, 41, 22, -37, -23, -60, 29, -41, 28, 47, 52, -8, 35, -3, 41, -21, -17, 34, 52, 11, -45, 10, -48, 83, 42, 5, 48, 94, 14, 37, -48, -47, 58, -6, 30, 49, -11, 47, 21, 21, 30, -32, -36, 71, -19, 13, 91, 31, 7, 43, 49, 13, 44, 52, -30, 50, 45, 25, -8, -5, -57, 49, -13, -42, 26, 60, 42, 29, 81, -26, 45, -59, 14, -24, -50, -22, -4, 95, 72, 37, 48, -47, -28, 22, -54, -6, -44, 5, -2, 33, -21, 0, 17, 55, 38, 37, -26, -25, 54, 55, 68, -41, 28, 35, 24, -23, -18, 51, -1, 43, 1, -18, 6, -56, -43, -33, 49, -46, 49, 36, 58, 21, -32, -1, 38, 1, 3, -51, 43, 27, 66, -47, -27, 17, 5, -43, 20, -39, 31, -29, -25, 13, 61, 37, 11, -54, -21, 42, -32, 1, -48, -19, 5, 33, -42, 2, -40, 47, 46, 19, -31, 12, 30, -21, 56, 35, 44, 27, 63, -13, 13, 5, -17, -5, 79, 46, 54, 44, 22, 2, -22, 59, 42, 52, 30, 28, -26, 15, -47, -12, -20, 59, 57, -19, 58, 31, 9, -46, -33, 19, 17, -2, -21, 2, 60, -6, 31, 57, 57, 14, 76, 50, -39, 22, -52, 13, 12, 28, -11, -26, 34, 85, -38, 10, 2, 20, 23, -17, 53, 50, -2, -34, 25, 45, -3, -38, -35, 70, -37, 42, -26, 5, 71, 32, 16, 29, 46, -51, 1, -4, -19, -46, 53, 88, 40, -32, 48, 3, -40, 13, 5, -32, 7, -40, -7, 20, 8, -52, -10, -54, 30, 41, 6, 13, 49, 22, -58, -39, 28, -51, -2, -26, -20, -17, -22, -5, -9, -44, -36, -53, 57, 44, 38, -55, -17, -17, 66, -57, 38, 15, 0, 56, -9, 70, -21, -3, 57, 48, -60, 1, -50, 23, -47, 16, 33, 49, 16, 22, 68, -56, 26, -8, 61, -39, 94, -2, -27, -24, 1, -1, 43, 2, 52, 63, 40, 58, -35, 7, -11, -10, 30, 17, 33, 21, -2, 21, -21, 58, 36, 0, 6, -32, -19, -8, -27, -33, 6, -59, 54, -17, 73, -60, 56, 72, 24, 67, 46, -26, -13, 7, 70, 6, -39, 66, -12, 31, -39, 6, -9, -12, -16, 14, 13, 32, 58, 1, 2, -9, -3, -19, -42, -40, 63, -36, -16, 52, -5, 69, 53, 50, 20, -62, -41, -24, -47, 45, 12, 65, -2, -33, -59, 92, 19, 12, 36, 39, 16, 64, -25, 30, -2, -33, 36, 25, -22, 39, -3, 75, 38, 49, 23, -10, -45, -21, -21, 14, -58, -19, 39, 34, 35, -47, 7, 74, 41, 69, -35, -3, 59, -3, -11, -23, -2, 16, -35, -16, 42, -21, 37, -28, 50, -16, -16, 11, -26, 4, 22, 39, -5, 36, 20, -41, 40, -6, 4, 18, -17, -1, 51, 50, 10, -49, 35, -29, -25, -12, 37, -46, -12, 39, 19, 3, -56, -37, 5, 38, -47, -39, -20, 6, -15, 50, -47, 50, 4, 42, -13, 5, -59, -11, 102, 47, 28, -29, 14, -62, 68, -5, -27, -51, 39, -28, -38, 63, 3, 61, -25, 19, 1, 42, 38, -38, -14, 91, 48, -9, -42, 13, -19, -27, -54, -4, 25, 20, 8, -5, -7, 48, 53, 20, -42, -55, 34, 8, -13, -64, 8, 43, 82, 3, -28, -64, -1, 53, -13, 12, 49, 65, 25, 52, 42, 13, 42, -32, -42, 39, 31, -64, 3, 15, 17, 28, -3, -70, 33, 20, 8, -44, 62, -40, -27, 20, -16, 23, -38, 22, 38, 5, -14, 40, -7, -16, -16, -21, 22, 44, -20, 52, 31, 5, 69, -32, -12, 34, -33, -42, 42, 16, 42, 17, 37, 38, 74, -44, 29, 14, 57, -57, -56, 60, -13, 23, -6, -32, 54, -20, 11, -20, 24, 47, 18, -44, 48, 39, 1, -1, -2, -37, 49, -19, 1, 39, 54, 71, 31, 79, 24, 45, -31, 19, -49, 95, 13, -53, -9, -16, -27, -17, -3, 33, 23, 36, 46, -10, -33, -40, 54, 21, -14, 8, -4, -35, 11, 10, -36, -24, 27, -35, 54, 2, 52, 23, -33, 56, -36, -12, -43, -6, -44, 5, -26, -3, -31, 5, 36, -52, 63, 14, -14, 46, -28, -17, 70, -8, 45, 70, -47, 50, 0, 55, -52, 29, 12, 51, -8, 18, 44, 67, 40, 26, 0, 61, 18, 58, 58, -24, 18, 0, 46, -51, -11, 21, 46, -44, 38, 40, 44, 79, 19, 20, 19, -24, -15, -20, -16, 25, 53, 12, 26, 83, 15, -17, 13, 75, 41, -49, 39, 36, -5, 36, -30, -45, 8, -43, 50, 32, -5, 11, -47, -25, 31, 0, -54, 9, -52, -48, -39, 5, 11, -1, -46, 83, -56, -15, 38, 64, -8, 10, 19, -3, -56, -40, -13, -39, 79, -28, 32, 12, -5, 30, 55, 85, 0, -16, 25, -37, -48, 51, 82, 42, 52, 55, 36, 47, -18, -52, -32, 0, -30, -47, -36, 27, 15, -14, 67, 13, 90, -48, -24, 31, 7, -6, 27, -2, -5, 39, 32, 6, -42, -22, -33, 38, -48, 4, 24, 52, -18, 18, -23, 46, 2, 35, 92, -10, 11, -1, 2, 56, 60, 33, -39, 9, -8, -9, -48, 2, -58, 19, 3, -63, 51, 4, 36, -12, -28, 85, 16, 61, 33, -56, -13, -26, 44, -6, 22, -41, -38, -2, 58, -2, -13, -13, -29, 50, 32, -32, 42, 12, 37, -15, -3, 15, -12, 44, 42, 10, -43, 73, -40, 83, -60, 31, 53, -30, -44, 18, -36, 57, -31, -29, 15, 55, 72, 39, 17, -1, 81, 16, 23, 70, 1, 72, 75, -67, -51, 3, -46, 50, 49, -28, -12, 35, -24, 13, 52, 27, 12, 26, -45, 59, 49, 34, -7, -38, -13, -15, 14, -5, -48, 3, -45, 31, 46, 31, 21, 74, -28, -48, 37, -64, 29, 40, -37, 32, -35, 23, -30, -67, 35, -28, 39, 7, -14, -43, -58, 56, 23, 51, -34, 5, 36, 19, 32, -29, 28, -93, 38, -40, 40, 40, -38, 33, 20, 9, -6, -23, 8, -36, 57, 39, -35, 31, 18, -37, -19, -47, 36, 22, 60, -28, 20, -23, 72, 34, 8, 4, -4, 14, 27, -24, 38, -2, 58, 35, -18, 75, -38, 48, 17, -20, 1, 44, 7, 47, 23, 44, -47, 45, -33, 41, 15, -40, 10, -67, 1, 44, -19, -7, -33, -20, 35, 39, -33, 24, -33, -36, -19, -1, 43, 118, 50, 0, 29, -12, -31, 97, 79, 42, -9, 57, -16, -52, -13, -7, -17, 40, -26, 24, 13, -9, 21, 96, -11, -30, 7, 34, 43, -24, 3, -3, -35, 90, 28, -17, 35, 86, -18, 28, 32, -11, -58, 12, -27, 25, -4, -29, -31, 6, 87, -22, -43, 17, -52, 48, 13, 75, -28, 36, -3, -56, -24, 48, 36, 82, 53, -24, -46, -27, -31, 85, 83, -7, 61, -15, 63, 3, 78, 48, 25, -39, 73, 2, 5, 56, -21, 81, 68, 61, -44, 30, 70, 27, -20, 71, 35, 89, 52, -24, -24, 57, 36, 107, 57, 51, 32, -5, -9, 28, 43, -46, -39, 35, 39, -34, -4, 77, -37, 50, -16, 9, 35, -2, 43, -7, -31, 22, 12, 85, 10, -47, -28, 6, 37, 94, 52, 31, 45, -28, 13, -57, 39, 2, -6, -37, -43, -54, 50, -16, -23, 9, -18, 59, -53, 51, 0, -36, 8, -4, -43, 6, -3, 1, 4, 63, 17, -32, 34, 2, -59, -37, -54, -45, 32, -17, 18, 4, -40, 24, -44, -43, 9, -78, 2, -3, 3, -39, -18, 16, -25, 17, 56, 14, -26, -54, -23, 9, -39, 13, -26, -4, 5, 42, 35, 37, 34, -28, 27, 12, 42, 37, 48, -7, -25, -60, -9, -32, -16, 45, 32, -44, 44, 16, -31, 81, -34, 16, 36, 47, -17, 24, -27, -48, -50, 39, -12, 50, 40, -36, 46, 37, -28, -24, 27, 52, 48, -4, 38, -29, -13, -26, 16, -40, -43, -14, 20, 6, 42, 1, -41, 75, 44, 64, 49, 7, -21, 48, -3, -52, -18, 4, 63, 14, 11, 44, 55, -6, -13, 18, -31, -35, 28, 23, 36, -19, 1, 17, 37, 91, -22, -27, 21, -25, 24, 40, 2, 54, -27, -51, 5, -10, 26, 39, -24, 46, 49, 25, 40, 36, -38, -23, -15, -71, -11, -44, 7, -47, -47, -5, 19, -4, 27, 46, -40, -1, -50, -63, -6, -3, -31, 36, 8, 0, 20, -16, 23, 42, -2, 33, -35, -5, 7, 35, 1, 30, 57, -55, 5, -42, -38, 40, -21, -15, 48, -66, -35, -36, 29, -30, -25, 39, -19, 9, -27, 36, 10, 22, -45, -31, 0, 25, -15, 40, 22, -3, -28, 48, -53, 29, 23, 24, 50, -46, -52, 75, 54, -34, -35, -21, -26, 28, -2, 5, 50, 23, 14, 32, -63, -16, 54, -41, 90, -36, 1, 1, -42, -20, -11, -61, -33, -54, 5, -57, 6, 0, -23, 46, -24, 50, -39, 10, 4, 5, 26, -20, 29, 31, -25, -29, -9, 33, 2, -14, 37, -33, 62, 48, -50, -29, -28, 7, -3, -42, 60, -7, -29, -5, 37, -27, 36, 1, 11, -8, 2, 63, -15, 52, -33, 23, 53, -5, -2, -32, -43, 29, 69, 6, -15, -8, 1, -10, -24, 114, -12, 22, 21, -7, 21, 57, 43, 71, -44, 25, -4, 8, -43, -13, 16, 8, 35, -18, 74, -8, 43, 5, 11, -1, 26, -58, 57, 54, -10, 79, -51, -5, 52, 48, 66, 3, -24, -14, -38, 6, 9, -8, -33, 80, 3, 14, 29, -42, 19, 42, -64, 13, 83, -47, 33, 37, 35, -8, 7, -28, -40, 51, -2, 46, 21, -28, 17, 5, 46, -24, 29, 61, 45, -23, 54, 62, 25, 45, -15, -11, -3, -9, 12, -51, 51, 24, -37, -64, 2, -2, -48, 4, 17, 19, 12, -32, -10, -8, -8, -15, -11, 12, -28, 11, -19, -3, 3, 14, 38, 20, -29, 31, -34, 14, 43, -37, -10, 15, -47, -3, 36, 56, 52, 48, -34, 17, -69, 29, -14, 13, -9, 12, 49, 9, 43, -47, -11, -33, 18, 6, 33, 38, 33, -38, -37, -81, -35, 28, 9, 33, 7, 19, -26, -41, 33, -15, 10, 43, -29, -21, 22, 17, 35, 45, -44, -18, -16, 55, -18, -45, 17, -20, 49, 20, -16, -20, 28, 20, 6, 17, -16, -31, 5, 43, 29, -45, 16, 29, 29, 36, -54, 39, -51, -45, -15, 16, -53, 39, -17, 4, -25, 4, 42, 43, -58, 11, 41, 51, -21, 26, 1, -57, 42, 51, -22, 2, -3, -36, -12, 60, -9, 33, 73, 24, 32, -36, -6, 1, -41, -6, -10, -56, -39, -23, 9, 16, 11, 44, 0, -9, -10, -66, 9, -14, 33, -39, 51, 36, -18, 5, -29, 29, -44, 47, 22, 26, -21, -32, 10, -49, 22, -20, -36, 14, 6, -51, 44, 54, -50, -13, 20, 34, 39, -6, 15, -39, 20, -52, 53, -36, 82, -30, 0, 11, 37, 24, 19, -9, -43, -8, -4, -65, -56, 74, -44, -28, -41, 49, -32, -18, 44, -34, -50, -9, -4, -11, 32, 7, 10, -42, 18, -64, 77, -14, 8, 52, 1, -9, -6, -28, 35, -46, 73, -21, -22, -22, 7, 3, -47, 54, 32, 72, -9, 8, 50, 36, -10, 27, -23, 58, -11, 5, 32, 27, -46, -45, -16, 15, 3, 91, -4, 64, -16, -61, -19, 10, -46, 29, -15, 59, 47, -41, 42, 4, 19, 22, -13, -40, 59, 53, 67, -46, -4, 21, 32, 6, -33, -47, 54, 36, 59, 33, 83, 50, -44, -38, 48, -15, 21, 5, 55, 5, 39, 47, 12, 59, -30, 47, 43, -13, 13, 1, -9, -55, 46, -29, 16, 36, -16, -43, 37, 41, 22, -25, 21, 36, 45, 5, 15, 44, 6, 28, -48, 78, -7, 14, 52, 49, 26, 34, 72, 26, -44, 5, -27, 30, -14, -59, -44, -41, 14, 19, -52, 44, 30, -3, 20, 30, -14, -54, 64, -44, 1, -40, -14, -45, -65, -15, -24, 67, -6, -37, 27, 38, 41, -21, -49, -8, 65, 27, 39, -58, 49, 4, -20, -6, -54, 19, 8, 88, 31, -31, 40, -28, 8, -33, -56, -10, 34, 12, 32, 43, 17, 4, -2, -9, 5, -75, -8, 44, 71, -67, -35, 46, -12, -9, 48, 50, -42, -66, -11, 13, 21, -23, -6, 32, 58, -31, -36, -39, 53, 42, -2, 61, 23, 58, 67, 2, -46, 21, -49, 5, 50, -62, 43, -35, 17, -28, 38, -58, -28, -22, 22, 24, 17, -37, 48, -1, -18, -28, -52, 8, -45, 45, -12, -42, 35, 97, 30, -32, -20, -34, 0, -47, 38, -51, -46, -26, 7, -40, 33, 51, 34, 7, 2, 69, -7, 21, -25, -23, -3, 22, 41, 7, 2, -8, -19, 6, -2, -28, 51, 51, -20, -26, 71, 34, 66, -22, -45, -38, 36, 5, -43, 65, 47, -43, 75, 6, -46, 40, 43, -22, 39, 58, -32, -2, 21, -52, -35, 6, -40, 52, -6, -13, 19, -17, -13, 20, 78, -41, 27, 18, -12, 42, -36, 27, -49, 19, 2, 73, 19, 42, 23, -22, 26, 70, -49, 32, -39, -46, -22, 27, 47, -4, 33, 38, -44, -9, -19, -44, -63, 60, 28, -27, 44, 8, 40, -11, 23, 12, 99, 84, -23, -16, 20, -46, 7, -20, -21, -3, -4, -44, -22, 39, 56, 3, -8, 50, 1, -14, 35, -21, -19, 50, 28, 15, 4, 42, 31, 23, 58, 41, 56, -33, 42, 46, -7, 49, -21, 33, 18, -24, 34, 42, 65, 45, -56, 35, -6, 25, 47, 29, -53, -36, 64, -58, -7, -31, 12, 5, -34, -12, 15, -44, -1, 33, -17, -17, 38, -58, 19, 83, 31, 16, 0, 27, 60, 45, 4, 77, 36, -32, 24, -13, 42, -57, 15, -43, 32, -2, 2, 53, -25, -18, 31, 49, 68, 85, 44, -39, 77, 49, 3, 36, 42, 29, 40, 7, 1, -15, 49, -24, 67, -6, -11, -77, 34, -6, 5, -3, 35, -36, 15, -13, 43, 37, -32, -23, 63, -28, 26, 6, 26, -6, 53, 35, -36, -66, -25, -33, 53, -34, -40, 58, 49, -17, 12, -23, 27, 7, 20, 34, 31, 31, 53, -27, 17, -12, 16, 46, 31, 8, 49, 57, 14, -43, -14, -25, 37, -35, -42, -46, 66, 52, 13, 52, -12, -31, -27, 42, 62, 15, -11, -43, -62, 37, 59, -44, 7, -32, 10, -16, 83, 32, 29, -12, 57, 29, -8, 6, 41, 72, -54, 43, 49, -59, 23, -4, 16, 29, 33, 5, -46, -41, 74, -48, -44, -8, 39, 0, -21, -43, -14, -30, 34, 68, -49, 29, -19, 24, 44, 53, -43, -49, 23, 47, -14, -25, -17, -17, 47, -27, -24, -15, 19, -2, 39, -50, -48, 31, 77, -41, 16, -54, -46, 41, -10, -30, -14, -38, -18, -34, -17, 9, -37, -20, -29, -43, 6, -53, 17, 2, -9, -44, 40, 40, 52, 54, 13, 40, -13, -38, -10, 3, 23, -68, -50, 11, 36, -55, -42, 45, -28, 39, -56, 26, -51, -19, -51, -59, 9, 36, 42, -43, 19, -12, 8, 21, -46, -18, 60, 49, 42, 48, 47, -30, 39, -23, 1, -25, 36, 6, 47, -48, -45, 5, 1, 31, 52, -7, 29, -46, 34, 8, 23, -7, 35, 12, -51, -2, 44, 6, 75, 6, -33, -45, 30, -23, -37, -20, -46, -3, 86, -49, -50, -33, 16, 31, -2, -23, -9, -15, 41, -5, 22, 17, 4, 21, -46, 34, -10, -27, 46, 46, -48, -52, 51, 15, 3, -36, 14, -7, -52, 72, 33, -52, 40, -53, -6, -9, 49, -9, 12, 26, -24, 35, 38, -4, 21, 22, -27, 20, -13, 41, -57, 25, 41, 12, 18, -50, -9, -38, 32, 63, -50, -26, 39, -3, -33, 19, -35, 36, -7, -3, -10, -64, -26, 21, 26, 25, 45, -15, -4, 0, -54, -61, -26, -17, 73, 19, 5, -67, 20, -35, 17, -15, 50, 64, 19, 25, -25, 19, -16, 51, -39, 43, -20, 62, 8, -43, 50, 60, -48, -10, 12, -27, 11, 22, -46, -50, 64, -58, 11, -37, 36, -10, 35, -15, -18, -32, 8, 34, 16, -54, 88, -14, -50, 78, -18, 25, -57, -57, 13, 58, 41, 30, 41, -18, 7, 3, -25, 5, -27, 21, -30, -48, -14, -27, -40, 46, 11, 21, 44, -14, 30, -53, -6, -45, -34, 11, 2, -37, 38, -45, 6, -12, -36, -13, -1, 1, -2, 27, -54, -55, 58, 39, -32, -43, -6, 22, 4, 22, -23, -73, 17, 8, -10, 45, 65, 25, -11, -40, 28, -14, -9, -25, -6, -19, 39, -28, -45, -2, -4, -55, 4, 7, 73, -5, -50, -39, 16, 49, -20, 47, -37, 82, 62, 24, 52, -53, 6, 33, -27, -24, 42, -64, -30, 40, 35, 60, 25, 17, -24, -3, -50, 3, 53, 17, -24, -46, -44, -67, 57, -33, 33, 51, -4, -41, -9, -4, -51, 5, 30, -27, -21, -41, -19, 12, -43, 12, 70, -39, -33, 80, 78, -21, -31, 17, -3, -56, 46, -44, -53, -40, 26, -17, -60, -27, -31, 53, 53, 52, -51, 44, -10, -3, 24, -18, 45, -26, -55, -22, -22, 54, -43, -8, 14, -55, -52, 12, -32, -56, 51, 39, -1, -25, 23, -2, 47, -28, -36, -5, 48, 83, 0, 19, -11, 44, 5, 21, -16, 22, 50, 52, -6, 14, 51, -18, -6, 28, -28, 2, 25, 43, 60, -14, 22, -35, -21, -51, 43, -17, -45, -27, 18, 50, -26, -52, 38, -26, 3, -16, -35, -12, -1, -5, 21, -18, 55, 57, 23, -39, 2, 57, -6, 41, 33, -57, -9, -13, 5, -52, 37, 59, -7, -21, 72, 60, 18, -46, 1, 32, 51, 75, 42, 32, -17, -39, 8, -7, 35, -31, 35, 34, 59, -19, 32, -2, 99, -48, -37, 24, 57, 37, -3, 85, -38, 28, 15, 69, -42, -52, -21, 19, 5, 65, -11, 2, -48, 31, 45, 2, -1, 0, 85, -11, 26, 14, 12, -45, 86, -2, -5, 8, -16, -18, -37, -50, 17, 65, 25, 72, 11, -13, -14, -37, 22, -56, -6, 74, -25, -25, 53, 63, -26, 56, 30, -22, 45, 45, 54, 6, 29, 36, 29, -22, 4, 57, -35, 64, 39, 50, 10, 31, -16, 29, 30, -52, 8, 11, -2, -25, 27, -44, 1, -25, -36, 19, 21, -19, -16, -24, -13, 4, 66, -34, 20, -54, 20, 27, 3, -27, -38, -9, 38, -29, -14, -56, 46, -40, 26, -26, -40, -52, -52, -2, -8, 13, 26, -22, 74, 49, 45, -24, 26, 8, 9, 32, -7, -58, 87, -21, -16, -40, -17, 75, 44, 24, 7, -8, -32, -14, 33, 5, -51, 42, 49, 33, 19, 69, 35, 38, 76, 37, 33, -23, 16, 54, 45, 17, -2, 24, 70, -37, 7, 56, 28, 13, 68, -36, -15, -2, 16, -10, 27, 54, 48, -21, 33, 12, -55, 9, 11, -23, 12, -40, -16, 2, -66, -8, 2, 57, 31, -20, -22, 24, -8, -57, -28, 40, 9, 8, 57, 51, 1, -6, -27, 23, 31, 90, 5, 56, 40, -31, -47, -71, 46, 42, 16, 8, 25, -27, -40, -6, 19, -44, 0, -55, -25, 7, 39, -23, -16, -34, -57, 41, 15, -6, 37, 0, 22, -25, 35, 17, 41, 22, -34, 14, 25, -7, -50, 33, -64, 38, 24, 53, 45, -8, 56, 12, -36, 20, 0, 59, -18, -8, -51, -36, 40, -23, 20, -10, -16, -34, -2, -33, 11, -3, -4, 35, 46, -23, -29, -7, -5, 39, 1, -46, -42, -16, 30, 38, -35, 13, 24, -16, 15, 21, -26, -3, 30, -10, -48, -51, 9, -46, 29, 1, 41, -40, 3, -8, -26, -5, -53, -16, 13, -16, -16, -17, 34, 43, 42, -44, 17, 17, 14, -26, 45, 83, 7, -55, 46, -28, -50, 47, -3, 14, -33, 49, 7, 20, -15, 54, 49, -33, -23, 16, -27, -6, 89, -34, 14, -41, -9, 37, -42, 13, -40, 2, 44, 63, -29, -63, 21, 55, 6, 53, -36, 38, 13, -7, 2, 58, -41, 82, 17, -44, 35, -53, -37, -60, -5, 43, 4, 38, -4, 31, -13, -36, 46, -1, -20, 48, -28, 30, 75, -40, -21, -48, 56, -7, -42, -61, -7, 28, -25, 24, -10, 26, -55, -53, 43, -51, -50, 1, -50, -13, 25, 23, -33, 52, -24, 72, -7, -7, 43, 14, 5, -51, -43, 17, -49, 66, 12, -25, -4, -19, -8, -40, -21, -15, 31, 35, -1, 11, 17, -50, 25, -64, -10, 52, -45, -9, -18, -17, 21, 31, 39, -62, 11, -19, 47, 1, 53, 48, -5, -13, 16, -7, 24, 9, 52, 21, -17, 37, 51, 45, -5, -1, -44, -39, -25, 38, -44, 61, -42, 23, -46, 32, 24, -5, 48, 41, -47, -29, 0, 5, -70, 27, 41, 53, -51, 2, -19, -51, 52, -60, -23, -5, 115, -6, -58, 25, -41, 25, 36, 10, -7, 38, 45, 15, 52, 15, 15, 32, -4, -7, 36, 59, -10, 1, 53, 49, -10, 92, -2, 6, -6, -59, -12, 44, 17, -15, -5, -50, -57, -9, -20, -30, 33, -1, -8, -33, -1, -13, 25, -21, -36, -62, 49, -59, -10, 36, -12, 41, -57, 1, -18, -31, -39, -22, -52, 43, -20, -1, -52, -27, -20, 50, -22, 31, -51, 22, -34, 81, 1, -45, -23, 35, -56, 59, 21, 40, -40, 38, 12, -11, -8, 32, 58, -36, 21, 43, -61, 32, 43, 37, 4, 21, -22, -34, 23, -30, 45, 49, -11, 21, -20, -21, 21, 14, -47, 54, 30, -2, -15, -19, 2, 33, -31, -36, 42, -24, -9, -40, 26, -32, -80, 19, -10, -51, -33, 40, 14, 46, -58, 91, 66, 36, -37, 13, -45, -28, -32, -24, -46, 17, 31, 41, 35, 42, -15, 4, 77, 37, 9, -50, -57, 25, -23, 37, -36, -55, 7, -31, -8, -2, 7, 38, -46, 14, -1, -15, 68, 42, -23, -53, 39, 0, -5, -1, 62, 66, 25, 49, -16, 61, 35, -57, 36, -39, -7, -40, -5, 10, -54, 41, 45, 53, -26, 38, -12, -11, 4, 24, 78, 30, -54, 34, -55, 40, -45, 6, -31, -5, 12, 28, -5, 41, -24, 48, 45, -41, 32, 31, -20, -28, -45, -30, 43, 4, 3, -15, -10, 76, -13, -32, 79, -7, 42, -30, 34, 1, 2, -39, -17, -11, -15, 88, 69, 23, -40, 29, 63, 12, -4, 32, -62, 55, -4, 13, 39, -6, 5, 65, -1, 4, 12, -11, 92, -18, 10, 52, 52, -1, 29, 40, 64, 48, -35, -67, 71, -29, -58, 14, 74, 43, 62, -53, -58, -52, -41, 44, -36, 41, -6, 42, -35, -7, -45, 22, 34, 38, 15, -13, -51, 31, -6, 31, 36, 19, 10, 73, 72, -21, -33, -14, 43, 1, 41, -47, -58, 24, 9, 43, 54, 84, 14, 17, -34, 32, 32, -3, -1, -45, 52, 64, -36, 87, -4, -5, 27, -34, 27, -19, 16, 29, -42, -35, 13, 50, 24, -34, -34, -31, 55, 25, -21, -31, -51, 27, 98, 34, -34, 49, -5, -32, -46, 39, 46, -10, -18, 4, 54, 73, 30, -28, 41, -57, 16, -24, -37, 13, -50, -46, -51, 13, 10, 13, -20, -14, -56, 54, 48, -18, -34, -29, 35, -3, -22, -26, 11, 5, 49, -38, 65, -22, -35, 68, 36, -18, -24, -1, 46, -25, -58, 10, 58, 31, 51, 61, 42, 18, 46, -19, -43, 7, -9, -59, -23, -49, 22, -4, 47, -7, -26, -9, 16, 15, 45, 18, -35, -33, 33, 17, -31, 42, 22, 32, -8, -1, 57, -36, -40, 74, 19, 32, 21, 68, 7, -36, -16, -34, -24, 50, 21, 47, -24, 14, -43, -58, -51, -39, -50, 29, 46, -78, 26, 26, 20, 46, -22, 34, 14, -24, -15, 8, 34, 1, 42, 38, -28, -49, -4, -41, 44, -64, 52, 10, -19, 34, 44, 60, -26, 0, -38, -13, 21, -76, 4, -50, 10, -31, 9, 7, -27, -46, -30, -47, 7, -23, -2, 30, -40, 28, 83, 37, -52, 30, -11, 16, 16, -17, 48, -22, -46, 30, -29, -35, 17, -13, -8, 23, 9, -57, 47, -20, -2, 14, 53, 36, -8, 38, -37, 82, 10, -25, 57, 46, 27, 36, -9, 12, 9, -37, -53, 48, 36, 53, 21, -14, -23, 8, 9, -3, 60, 40, 13, -69, 67, 31, -1, 10, -44, 47, -27, 47, -42, 46, 58, -15, 54, -40, -40, 22, -46, -57, 6, -4, -64, 10, 31, -48, 32, 33, 44, 13, 15, 43, -50, 15, 38, 42, 36, -44, -42, -12, 14, -34, 6, 5, -14, 30, -12, -15, 21, 66, 32, -57, 46, -4, 48, -40, -45, -29, -39, 21, 28, -33, 63, 55, -59, -14, 73, -32, 16, 31, 42, 0, 74, 3, -41, -25, -29, -35, 38, -27, 23, 32, 33, -50, 51, -14, 24, -3, 28, -42, 9, -50, -29, 25, 30, 21, -39, -49, -22, -59, 52, -38, -43, 12, 42, 24, 24, 31, 10, 46, -18, 27, 44, 64, -1, 38, -45, 67, 30, -45, -32, 43, -8, -70, 38, 9, -17, -16, -8, 1, 5, -42, 60, -29, 39, -9, 52, 86, 45, -17, -42, 10, -17, -4, 8, -15, 28, -20, 10, 56, 24, 71, 65, 34, -23, 30, 53, -50, -2, -46, -19, -25, 22, -49, -51, -25, 0, 67, 38, 71, 15, -56, 68, -30, 36, -64, -40, 8, -37, -11, 8, 9, -9, -1, -3, -29, -4, -19, 50, 10, 37, -35, -15, -27, 68, -33, 51, 4, 15, 6, 82, -21, 4, 8, -4, -53, 13, -97, -24, 68, -51, 10, 26, 13, 51, -8, 55, 42, 12, -55, 32, 14, 67, -49, -50, -28, -49, -16, 25, -51, 36, 58, 37, -10, 44, -57, -28, -26, -48, -9, 46, 24, -8, 44, 12, -3, -46, 7, 36, 52, -51, -3, 17, 48, 11, -49, -12, -51, 89, -32, 54, 59, 3, 60, 35, -2, -52, -47, -7, -16, -32, -1, 37, 15, -24, -19, 48, -17, 19, 71, -19, 11, 49, 0, 17, -14, 62, -15, -52, 20, 79, -13, -54, 31, -36, 9, 36, 49, -35, -37, -17, 18, 35, -27, -17, 70, -63, 40, 55, 32, -2, -12, -6, 48, 6, -15, 30, -49, 46, 26, -15, -28, -16, 24, 10, 21, -53, -11, -33, -62, -9, -18, 30, 30, 15, -19, 21, 13, 2, 4, 23, -31, 49, -20, 86, -51, 41, -42, -21, 52, -12, 21, -54, 10, 32, -14, 37, 16, -45, 40, 58, 59, -38, -62, -19, 1, -11, 77, 31, 23, -14, -20, 41, -23, -53, 30, 39, -14, 60, -1, -32, -53, 22, -25, -11, -3, 11, -24, -50, 24, -47, 12, -13, 26, 20, -25, 17, -4, 37, 27, -26, -6, 53, -36, -29, 65, 43, 43, 20, 33, 3, -37, -17, 34, 44, 20, 41, 54, 58, 5, 5, 70, 29, 53, 90, 51, -43, -20, -20, -6, -9, -53, 18, 50, -8, 5, -10, 37, 18, -31, -52, 19, -32, -38, 5, 9, 10, 12, 39, -26, 17, -11, 24, -31, -6, -50, 14, -2, 16, 42, -14, -50, -26, -42, 48, 55, -2, -25, 32, 81, -20, -41, -43, -3, 16, 21, 40, -11, 77, 41, -47, -66, 52, -6, 51, 48, 54, 88, 63, 26, 43, -6, 9, 2, 15, 33, 55, -48, -52, -34, -12, 12, 44, 15, 43, 18, 28, -64, 29, 15, 34, -44, -32, -35, 17, 50, 34, 3, -51, 48, 77, 32, -41, -61, 64, -10, -55, 9, 57, -29, -63, 49, 9, 24, 31, 20, 28, 48, -18, -22, 60, -16, 12, -5, 9, -24, 55, 40, -31, -37, -34, 21, 38, 87, -32, -43, 2, -4, -20, 12, -54, 5, -36, 24, 23, -17, -27, -40, 51, -40, 13, -69, -18, 14, 84, 42, 28, 4, 60, 3, -52, 45, 42, 6, -19, 0, 7, -15, -38, -32, 42, 50, -11, 16, 41, -34, 6, 42, 14, 73, -21, -43, -58, -17, 6, 43, -31, -3, -19, -50, 11, 2, -27, -42, 42, -13, -46, 39, -18, -42, 36, -48, -14, -26, 25, 38, 48, 28, 43, 81, -44, 75, 42, 10, -21, 23, 15, -14, 0, -39, -13, -6, 47, 6, 6, -22, 26, -7, 59, -38, 16, -3, 51, -44, 24, 5, -49, -49, -23, -28, 17, -25, -7, 55, 12, -55, -16, -25, -53, 35, 37, 2, 4, 16, 3, 25, 31, -47, -58, -14, 64, -8, -29, -31, -22, 22, -35, -58, 26, 31, 9, 16, -40, 8, 30, 1, 2, -13, -5, -3, 38, -44, 68, 32, -60, 4, -30, 51, 33, -46, 22, 33, -22, 22, -1, 29, 5, 18, 26, -11, -53, -27, 32, -21, 28, 21, 1, 17, 71, 25, 29, -19, 50, -17, 43, 23, 24, 5, 8, 32, -8, 43, 14, 13, -39, 77, 32, -36, -8, 15, -6, -27, 12, -78, -11, -44, -26, 12, 28, 7, 25, 32, 10, -7, -41, 47, 28, -16, -34, -26, -28, -38, 49, 33, -42, 66, -53, -32, 32, -62, 57, -3, -52, -4, -34, 74, 32, 12, 54, 23, -34, 44, -21, -5, -37, -1, -69, -28, 83, -43, 22, -12, 76, -36, -5, -31, -37, -34, -37, 9, -1, -31, 59, 16, 27, -11, -18, 56, -29, 15, -18, 13, 36, -46, 68, -49, 18, 13, -37, -8, 10, -20, -22, 4, 77, -30, -8, 18, -19, 21, 81, 15, 49, -32, 80, 49, -3, -7, 55, 6, -41, 40, 48, -1, -26, -28, -14, 17, 11, 24, 25, 45, 70, 38, 37, -3, 68, -46, -2, -41, 9, 51, 96, 67, -4, 34, 94, -52, -34, -52, -21, -12, -69, 21, 1, 23, 49, -23, 27, 2, -51, 0, 26, -49, 15, -31, 45, -12, 18, 13, -24, -41, 20, 26, 49, -25, 6, 11, 44, -61, -1, 87, -15, 18, 27, -52, 23, -3, 18, -17, 45, -51, -8, -36, -23, -37, 58, 31, -28, -12, -3, 43, 31, 59, -10, 49, 35, 1, 40, -64, -4, -25, 0, -53, 8, -31, -8, 13, 49, 43, 9, -42, 35, 48, 27, 10, 0, -59, -7, -21, 6, 45, -42, 28, -15, 31, 8, 2, 44, -70, 33, -61, 53, -18, 31, -10, -53, 47, -19, 26, -7, 56, -24, 55, 55, -8, -25, -4, -22, 9, 44, 47, -32, -56, 0, 39, 4, 25, -20, -25, 46, 39, 36, -18, 69, -9, 7, 20, -33, -57, -67, -59, -14, -18, 50, -16, 21, 20, -46, -23, -37, 37, 70, -23, -8, -8, 37, -37, 19, 10, 3, -21, 2, 70, 9, 9, 16, 21, -4, 13, 56, 38, 29, 5, 27, 37, -44, 2, 57, -59, 3, -52, 32, 29, 63, 4, -13, -41, -12, -55, -21, 10, -2, 18, -4, 27, 10, -27, 71, -6, 35, -17, 10, 99, 0, -1, 74, 57, 43, 49, 61, -35, -18, -43, 5, 2, 22, -28, -29, -31, 0, 49, -56, 75, -44, -22, 16, 45, 9, 8, 55, -50, 14, 52, 12, -12, 22, -43, -12, 61, 42, 19, -10, 1, -10, -47, -30, -34, 90, -14, 58, 8, 21, 4, -21, 30, 38, -18, 47, 59, -44, 34, -24, -63, 27, -9, 5, -56, -64, -39, 58, 64, -35, 9, 9, 14, 44, 60, 10, 20, 81, -52, 36, -25, 7, 51, -32, 29, -44, 46, 84, 76, 27, -47, 64, 33, -27, 63, 8, 63, -11, 47, 51, 70, -23, 3, 47, 36, 20, 53, -26, 57, 61, 28, 55, -13, -46, -48, 40, 45, -7, 41, 54, 72, -48, -45, -3, -60, -12, 60, -32, 77, 51, -2, 8, 11, -6, 70, 14, 4, 51, 37, -62, 16, -35, 4, -25, -25, -13, 39, 50, -32, 45, 47, 30, 75, 52, 50, 36, 38, 0, 56, -14, -8, -22, -13, -36, -12, -35, -18, 66, 29, 27, 21, 60, -54, 30, -8, -46, -35, 40, 13, -45, -14, 7, 34, -6, 44, -45, -18, 39, -35, -6, 16, 9, -22, -32, 29, -39, 5, 20, -27, -1, 14, -47, -5, 45, -18, -16, -36, 46, -46, 20, 26, -5, 8, -17, 31, 82, 45, 31, 10, 10, -52, -43, 62, -38, -12, -19, -28, 49, 11, -45, 51, 77, 20, 35, -39, 69, -34, -16, -52, -39, 38, 16, 32, 26, -31, 42, 26, 53, 13, 46, 35, 43, 39, 2, 29, 36, 15, -44, 36, 58, 59, 6, 48, -42, 28, -18, -11, 45, 5, 50, -41, 11, -63, 33, -52, -14, -20, -61, -36, 9, 14, 31, -54, 31, -56, -21, 19, 25, -8, -45, 24, 1, 2, 38, 13, -14, -37, 26, -8, 47, -62, 28, -52, -57, -55, 13, 34, 39, 8, -51, 33, 9, 10, 49, -21, 17, -48, -49, -27, 7, 43, 11, -53, 11, 60, -38, -36, -77, 0, -51, 2, -52, -37, 70, 13, -41, -46, -18, 4, -6, -23, -50, 0, -62, -27, -3, 39, 80, 42, -10, -83, -10, 25, -71, -37, 42, 13, -32, 55, -45, 37, 5, -56, 21, 7, -20, -2, 29, -34, -19, 37, 46, 0, -1, 0, 6, -13, -24, -5, 57, 48, -21, -48, 5, -81, 45, 16, 36, 58, 34, -4, -1, 50, 21, 9, 22, 13, 23, -13, -37, -50, 79, 15, -13, 29, 41, -35, 12, -27, 46, -20, 32, 22, -60, 17, -10, -34, -67, -62, 13, -46, -40, -25, -72, 42, -25, 5, 28, -60, 4, 12, -38, 37, -30, -19, 5, -21, -57, -47, -35, 38, -50, 57, 25, -17, -29, 13, -13, -2, -5, -59, 4, -14, -52, 71, 38, -3, -13, -46, 17, 25, -7, -52, 15, 7, -12, -23, -12, 4, 5, -9, 83, -2, -9, -59, 52, -30, -51, -10, 24, -27, 12, 0, 42, 47, 2, 89, -42, 36, 18, 28, 32, 22, 23, 11, 46, -4, -3, 32, -35, 59, -54, 7, 62, -36, -17, -53, 9, -59, 50, -40, -4, -20, -14, -9, 27, -3, 9, 39, 42, 17, 2, 19, 56, -12, 83, 15, -11, 34, -14, 22, 2, -33, 27, 21, 39, 49, -36, -37, 61, -9, 54, 77, 33, -9, -48, -33, 46, 59, -47, 12, -32, 25, -10, 40, 18, 25, 77, -13, 5, -39, 60, 27, 14, 47, -30, -31, 20, 37, 32, 37, 82, -25, 14, -45, 54, -5, -25, -19, -38, 28, 3, 5, -24, -5, -11, -72, 20, -23, 51, -16, 47, -70, 44, 27, -43, -23, 29, 36, 14, 3, -4, 10, 58, -23, 14, -19, -43, 28, 39, -2, 31, 18, 5, 8, 3, 24, 31, -4, 36, 21, 70, 4, -10, -81, 41, -35, 16, 46, -60, 13, -27, -11, 16, 6, 18, 15, 6, -46, -38, 60, 7, -38, 2, 3, 39, 44, -83, 30, -27, -18, 63, 51, 58, -14, 7, 30, 14, -16, 24, 0, -56, 30, 11, 70, -40, -50, 18, 3, -37, 59, 21, -17, 18, 38, 56, 59, -16, 41, 11, -53, -27, -33, -24, 23, 33, 32, -34, -27, 32, -20, -42, -49, 0, 27, -18, 24, -54, -29, -30, -30, -42, -45, 9, -71, -61, 43, 11, 44, -5, 45, -15, 15, -40, -68, -41, -37, -3, 30, 22, -50, -59, -15, 56, 15, 30, -7, 71, 1, 58, 19, 6, -16, -7, -15, 10, 13, 57, -8, -15, 26, -47, 25, -23, -31, -15, -9, -15, 39, -56, -61, -49, 27, -19, 23, 13, 11, -20, -32, -7, 7, 5, -49, 26, -16, 2, -25, 11, 18, 52, -17, -53, 26, 6, 27, 36, 16, 44, -50, 4, -8, 31, -7, 11, -68, 13, 10, 7, 19, -12, 28, 24, 15, -24, 0, 19, 20, 35, 5, 45, 21, 47, 28, -34, -4, 7, 46, 42, 46, 33, 42, -7, 8, -38, 9, -2, -20, 35, -33, 32, -40, 23, 87, 65, -14, 43, -25, -50, -8, 9, 31, -9, 44, -55, 31, 15, -34, 22, 2, -12, -57, 6, 22, -25, 2, -28, -9, -49, -50, -45, -42, -25, -16, -38, 22, 20, -32, -29, 20, 45, -13, -48, 51, 23, 29, 1, -33, -11, -23, -7, 18, 6, -39, -16, -41, 14, 0, 35, 2, -31, -50, 10, -51, -51, 34, 29, 99, 62, 34, -28, -19, -10, -1, 8, -70, 39, 17, 2, 26, -45, -7, -31, 39, 62, -20, 55, -65, -18, 40, -52, -5, 1, -56, 28, 56, -13, -49, -33, 80, -12, 33, 2, -44, 35, -4, -42, -17, 82, 43, 13, -21, -1, 19, -27, 17, -9, 55, -55, 9, -15, 48, 23, -38, -37, 5, 31, -24, -36, 24, -55, -1, 47, -22, 13, -55, 1, 23, -16, 8, 31, -19, -34, -3, 11, 13, -38, -56, 65, -52, -69, 32, -70, 3, 29, 5, -41, 35, -16, 13, 20, -11, 41, -25, 48, 47, -11, 11, -7, -31, 15, 22, 23, -15, 0, -45, 5, 21, -39, 30, 6, -54, 5, -48, -42, 46, 32, 20, 38, 5, 8, -32, -29, -18, 46, 80, 15, -55, -4, 27, -1, 33, -57, 29, 4, 7, -12, -15, -27, -2, 10, -17, 67, 22, -52, 4, -39, -15, 28, -27, -60, -36, 35, 8, 48, 9, -56, 42, -15, -25, -17, -38, 30, 2, -12, -39, 13, -47, 32, 20, -36, -13, 32, -49, 42, 33, -64, 8, -50, 48, -64, 25, 49, -59, 36, 46, 16, -52, -50, 21, 39, -84, -5, 18, 38, 15, 48, 18, 4, 1, -50, 27, -44, -7, 24, -27, 74, -29, -3, -19, 10, -26, 36, -37, 44, 5, 32, -5, 41, -29, -2, 20, 21, 19, 62, 1, 34, 13, 52, -72, 20, -91, -61, 14, 10, 67, -39, -35, 62, -1, -32, -24, -16, 26, -37, 28, -40, -27, 57, -51, -21, 0, 42, 11, 11, -57, 33, 8, 1, 25, -11, -56, 56, -48, -47, -59, -32, -31, 23, -59, 56, 30, -5, 14, -51, -12, 19, 14, 4, -1, 17, 3, 21, -64, -54, 38, 39, -30, 21, -27, -78, -40, 7, 13, -17, 23, 47, -22, -34, -11, 24, -7, 13, -2, -38, -16, 49, 12, -28, -57, -45, -54, 13, 24, -50, -45, 50, 34, 24, 32, 35, 38, 9, 26, 10, 11, 24, 26, 34, -1, -60, -1, 5, -65, 1, 7, -7, -31, -17, 29, 32, -25, 52, -47, -53, -40, -9, -40, 44, 34, -26, -25, -4, 56, -7, 30, 11, -42, 51, -67, 32, -26, -38, -25, 22, -4, -26, 30, 36, -45, -12, 1, 10, -11, -5, 35, 29, 3, -56, -31, 4, 2, 21, 10, 47, -28, -25, -4, 5, 9, -16, -27, 27, -53, 3, 75, -26, -71, 54, 32, 42, -69, -11, -16, 9, -59, -34, -20, 62, -65, -25, -47, 1, 18, 49, -16, -1, 30, -57, 35, -57, 44, 55, 46, -9, 45, 41, 46, 33, 24, -53, -5, -31, -37, -14, -50, 14, -17, -51, -38, -50, 40, 36, -20, 28, 1, -5, -34, 60, -11, -27, -53, -16, -13, 27, 21, 14, 32, -7, 16, -46, -24, 57, -32, -5, -62, 13, 51, -50, -41, -44, 26, -18, 42, -24, 2, 6, 41, 32, 2, 17, 39, -57, 22, 49, 8, -32, -38, 51, -45, -27, 60, 21, 15, 54, 15, -21, 0, 33, -54, 32, -39, -26, -8, 29, -52, 46, -35, -30, 34, 72, -85, 58, -55, -24, 44, 51, -53, 13, 25, -38, -48, 14, 57, -15, -24, 54, 23, -6, 36, -44, -37, 21, 18, -11, -48, 6, -50, 17, -40, -9, 67, 15, 24, -40, -55, -2, -48, -55, 2, 53, -5, 27, -13, 26, 28, 13, -59, -15, 14, -51, -5, 40, 5, -66, 36, -28, -61, -29, 50, 8, 27, 5, 73, -31, 41, -19, 15, 
